tree
version=v4
num_class=1
num_tree_per_iteration=1
label_index=0
max_feature_idx=184
objective=regression
feature_names=Column_0 Column_1 Column_2 Column_3 Column_4 Column_5 Column_6 Column_7 Column_8 Column_9 Column_10 Column_11 Column_12 Column_13 Column_14 Column_15 Column_16 Column_17 Column_18 Column_19 Column_20 Column_21 Column_22 Column_23 Column_24 Column_25 Column_26 Column_27 Column_28 Column_29 Column_30 Column_31 Column_32 Column_33 Column_34 Column_35 Column_36 Column_37 Column_38 Column_39 Column_40 Column_41 Column_42 Column_43 Column_44 Column_45 Column_46 Column_47 Column_48 Column_49 Column_50 Column_51 Column_52 Column_53 Column_54 Column_55 Column_56 Column_57 Column_58 Column_59 Column_60 Column_61 Column_62 Column_63 Column_64 Column_65 Column_66 Column_67 Column_68 Column_69 Column_70 Column_71 Column_72 Column_73 Column_74 Column_75 Column_76 Column_77 Column_78 Column_79 Column_80 Column_81 Column_82 Column_83 Column_84 Column_85 Column_86 Column_87 Column_88 Column_89 Column_90 Column_91 Column_92 Column_93 Column_94 Column_95 Column_96 Column_97 Column_98 Column_99 Column_100 Column_101 Column_102 Column_103 Column_104 Column_105 Column_106 Column_107 Column_108 Column_109 Column_110 Column_111 Column_112 Column_113 Column_114 Column_115 Column_116 Column_117 Column_118 Column_119 Column_120 Column_121 Column_122 Column_123 Column_124 Column_125 Column_126 Column_127 Column_128 Column_129 Column_130 Column_131 Column_132 Column_133 Column_134 Column_135 Column_136 Column_137 Column_138 Column_139 Column_140 Column_141 Column_142 Column_143 Column_144 Column_145 Column_146 Column_147 Column_148 Column_149 Column_150 Column_151 Column_152 Column_153 Column_154 Column_155 Column_156 Column_157 Column_158 Column_159 Column_160 Column_161 Column_162 Column_163 Column_164 Column_165 Column_166 Column_167 Column_168 Column_169 Column_170 Column_171 Column_172 Column_173 Column_174 Column_175 Column_176 Column_177 Column_178 Column_179 Column_180 Column_181 Column_182 Column_183 Column_184
feature_infos=[-1.8395245802193829:1.8395245802193829] [-2.1977225440710098:2.1977225440710098] [-2.4306436834418581:2.4306436834418581] [-2.4426837576003768:2.4426837576003768] [-2.3955034337406333:2.3955034337406333] [0:2] [0:2] [0:2] [0:2] [0:2] [0:2] [0:2] [0:2] [0:2] [0:2] [-3.468625763177045:3.468625763177045] [-4.6640696793554257:4.6640696793554257] [-5.2652459653177157:5.2652459653177157] [-5.5585054652541288:5.5585054652541288] [-5.6778443056357428:5.6778443056357428] [0:2] [0:2] [0:2] [0:2] [0:2] [0:2] [0:2] [0:2] [0:2] [0:2] [-1.8395245802193605:1.8395245802193605] [-2.191999930362897:2.191999930362897] [-2.3400033875499204:2.3400033875499204] [-2.4197423744436306:2.4197423744436306] [-2.4687319933234675:2.4687319933234675] [-1.8395248953347227:1.8395248953347227] [-1.8395248953347227:1.8395248953347227] [-1.8395254388281024:1.8395254388281024] [-1.8395256020761048:1.8395256020761048] [-1.8395337818590578:1.8395337818590578] [-1.839536791575429:1.839536791575429] [-2.1977235033848954:2.1977235033848954] [-2.1977236435473335:2.1977236435473335] [-2.1977241969877315:2.1977241969877315] [-2.1977242641694308:2.1977242641694308] [-2.1977293172358836:2.1977293172358836] [-2.197731691265798:2.197731691265798] [-2.4306443832281905:2.4306443832281905] [-2.4306445103954326:2.4306445103954326] [-2.4306445490960815:2.4306445490960815] [-2.4306445417629066:2.4306445417629066] [-2.430646673912999:2.430646673912999] [-2.4306475373603074:2.4306475373603074] [-2.442683965808865:2.442683965808865] [-2.4426840067266156:2.4426840067266156] [-2.4426839788139696:2.4426839788139696] [-2.4426840811827351:2.4426840811827351] [-2.4426863671129682:2.4426863671129682] [-2.442687819451224:2.442687819451224] [-2.39550355693701:2.39550355693701] [-2.3955035434976866:2.3955035434976866] [-2.3955035019684825:2.3955035019684825] [-2.3955033964492571:2.3955033964492571] [-2.3955038682383294:2.3955038682383294] [-2.3955037342677548:2.3955037342677548] [0:2] [0:2] [0:2] [0:2] [0:2] [0:2] [0:2] [0:2] [0:2] [0:2] [0:2] [0:2] [0:2] [0:2] [0:2] [0:2] [0:2] [0:2] [0:2] [0:2] [0:2] [0:2] [0:2] [0:2] [0:2] [0:1.9999999999999998] [0:2] [0:2] [0:2] [0:2] [0:2] [0:2] [0:2] [0:2] [0:2] [0:2] [0:2] [0:2] [0:2] [0:2] [0:2] [0:2] [0:2] [0:2] [0:2] [0:2] [0:2] [0:2] [0:2] [0:2] [0:2] [0:2] [0:2] [0:1.9999999999999998] [0:2] [0:2] [0:2] [0:2] [0:2] [0:2] [-3.4686323687282745:3.468632368728275] [-3.4686323687282745:3.4686323687282745] [-3.4686340143462857:3.4686340143462857] [-3.4686370697133451:3.4686370697133451] [-3.468646975593066:3.468646975593066] [-3.4686685298658557:3.4686685298658557] [-4.6640799854847872:4.6640799854847872] [-4.6640799854847863:4.6640799854847863] [-4.6640874978884925:4.6640874978884925] [-4.6640890254394733:4.6640890254394733] [-4.6640967413776284:4.6640967413776284] [-4.6641000151098018:4.6641000151098018] [-5.2652717560023685:5.2652717560023685] [-5.2652717560023685:5.2652717560023685] [-5.2652767297147758:5.2652767297147758] [-5.2652767297147758:5.2652767297147758] [-5.2652767297147758:5.2652767297147758] [-5.2652795647999744:5.2652795647999744] [-5.5585518651700943:5.5585518651700943] [-5.5585518651700943:5.5585518651700943] [-5.5585518651700943:5.5585518651700943] [-5.5585518651700943:5.5585518651700943] [-5.5585518651700943:5.5585518651700943] [-5.5585518651700943:5.5585518651700943] [-5.6778745219460776:5.6778745219460776] [-5.6778745219460776:5.6778745219460776] [-5.6778745219460776:5.6778745219460776] [-5.6778745219460776:5.6778745219460776] [-5.6778745219460776:5.6778745219460776] [-5.6778774860781516:5.6778774860781516] [-1.8395248953347008:1.8395248953347008] [-1.8395248953347003:1.8395248953347003] [-1.83952543882808:1.83952543882808] [-1.8395256020760831:1.8395256020760831] [-1.8395337818590356:1.8395337818590356] [-1.8395367915754071:1.8395367915754071] [-2.1920001901156345:2.1920001901156345] [-2.1920001901156345:2.1920001901156345] [-2.1920006417371245:2.1920006417371245] [-2.1920007766404126:2.1920007766404126] [-2.1920075309673894:2.1920075309673894] [-2.1920100148859687:2.1920100148859687] [-2.3400036263885005:2.3400036263885005] [-2.3400036263885005:2.3400036263885005] [-2.3400040437387841:2.3400040437387841] [-2.340004167974862:2.340004167974862] [-2.3400103852184753:2.3400103852184753] [-2.3400126708703719:2.3400126708703719] [-2.4197426015319388:2.4197426015319388] [-2.4197426015319388:2.4197426015319388] [-2.4197430006289715:2.4197430006289715] [-2.4197431189650533:2.4197431189650533] [-2.4197490376903037:2.4197490376903037] [-2.4197512127789178:2.4197512127789178] [-2.4687322139313452:2.4687322139313452] [-2.4687322139313452:2.4687322139313452] [-2.4687325996612643:2.4687325996612643] [-2.4687327144362987:2.4687327144362987] [-2.4687384578728597:2.4687384578728597] [-2.4687405692523727:2.4687405692523727]
tree_sizes=1561 1552 1571 1558 1563 1567 1545 1557 1548 1534 1570 1565 1555 1533 1568 1558 1516 1514 1561 1564 1567 1565 1571 1554 1563 1546 1559 1540 1546 1539 1560 1535 1538 1557 1536 1555 1535 1540 1526 1574 1538 1550 1540 1583 1541 1488 1554 1563 1543 1498 1535 1561 1528 1526 1558 1538 1532 1538 1542 1546 1531 1540 1537 1525 1554 1570 1508 1503 1553 1571 1534 1493 1558 1492 1541 1499 1539 1537 1531 1540 1544 1504 1508 1557 1546 1463 1476 1484 1537 1548 1515 1556 1553 1499 1528 1478 1554 1544 1539 1539

Tree=0
num_leaves=14
num_cat=0
split_feature=1 30 30 2 2 3 3 45 45 28 29 30 0
split_gain=23999.8 6287.05 5538.06 2862.43 2778.99 1747.07 1537.47 1365.08 1242.84 1216.34 1210.82 1123.93 1001.36
threshold=-0.039532374096589128 -0.82528275723627764 0.82528275723627786 1.3779754013185319 -1.3763982772720946 0.55859424794029566 -0.56903054031314915 0.25116489313773371 -0.43543271722784599 1.0000000180025095e-35 1.0000000180025095e-35 0.80448694172668733 0.80448694172654089
decision_type=2 2 2 2 2 2 2 2 2 2 2 2 2
left_child=2 3 6 -2 10 7 12 -3 -8 -5 -4 -7 -1
right_child=1 5 4 9 -6 11 8 -9 -10 -11 -12 -13 -14
leaf_value=-0.0079194045791807829 0.0090538783063987462 0.0033282822134818729 -0.068423091824874091 0.068667315175097277 -0.0091657218257167137 0.0077282712827458624 0.00465775422310237 -0.0041982525227664295 -0.0032241853347282144 0.019579097049413439 -0.0195515244915416 -0.0033190933028891308 0.0029973856474069271
leaf_weight=565516 948842 476462 5162 5140 915498 605420 352466 487560 462644 281300 282914 108614 98686
leaf_count=565516 948842 476462 5162 5140 915498 605420 352466 487560 462644 281300 282914 108614 98686
internal_value=0 0.00628437 -0.00682418 0.0116987 -0.0118612 0.00229864 -0.00272606 -0.000478309 0.000184086 0.02046 -0.0204272 0.00604782 -0.00629741
internal_weight=0 2.91334e+06 2.68289e+06 1.23528e+06 1.20357e+06 1.67806e+06 1.47931e+06 964022 815110 286440 288076 714034 664202
internal_count=5596224 2913338 2682886 1235282 1203574 1678056 1479312 964022 815110 286440 288076 714034 664202
is_linear=0
shrinkage=0.1


Tree=1
num_leaves=14
num_cat=0
split_feature=30 1 2 2 15 15 28 30 34 0 27 15 31
split_gain=19643 6278.36 4629.91 1848.35 1780.86 1769.74 1601.91 1376.39 1372.8 1281.47 1007.03 772.463 701.315
threshold=0.22269534719061268 0.75986450808542016 -1.1635981150791042 1.3990145783647134 0.44505033154350149 -0.629396214807462 1.0000000180025095e-35 -1.1583313655999634 0.15436960862019797 -1.0594403649441719 0.072782288243668822 0.42942636598039402 -0.029133506270341631
decision_type=2 2 2 2 2 2 2 2 2 2 2 2 2
left_child=1 4 8 11 7 -4 -5 -1 10 -7 -2 -3 -10
right_child=2 3 5 6 -6 9 -8 -9 12 -11 -12 -13 -14
leaf_value=0.0070156746731425169 -0.097974719432642104 0.0068666815364454813 -0.010988586549754898 0.065547924833114238 0.0077325083302717396 -0.0068276908197487385 0.015975022356770018 -0.0010279636535598898 -0.15173902184526261 -0.0008613766977126734 -0.031605019072592229 0.01473118331607925 -0.014011930967429021
leaf_weight=252354 2566 683486 347480 6642 394568 574238 350622 1354982 370 964888 20962 152816 490250
leaf_count=252354 2566 683486 347480 6642 394568 574238 350622 1354982 370 964888 20962 152816 490250
internal_value=0 0.00513526 -0.00683517 0.0108758 0.00171265 -0.00454264 0.0168966 0.000234899 -0.0152474 -0.00308737 -0.0388434 0.00830375 -0.0141158
internal_weight=0 3.19547e+06 2.40075e+06 1.19357e+06 2.0019e+06 1.88661e+06 357264 1.60734e+06 514148 1.53913e+06 23528 836302 490620
internal_count=5596224 3195470 2400754 1193566 2001904 1886606 357264 1607336 514148 1539126 23528 836302 490620
is_linear=0
shrinkage=0.1


Tree=2
num_leaves=14
num_cat=0
split_feature=1 0 0 2 2 25 10 4 4 11 12 15 44
split_gain=16626.5 4284.06 3606.86 1985.36 1845.67 1425.18 1766.61 1309.07 1144.61 1086.45 1053.81 918.23 899.533
threshold=0.082955219988722143 -0.79852188778393152 0.79792163078341771 -1.5493212367519973 1.5362570441959582 1.0000000180025095e-35 1.0000000180025095e-35 -0.31241761743383706 0.43547933602533923 0.74781470871691502 0.7793361146095269 -0.629396214807462 0.2541059238795173
decision_type=2 2 2 2 2 2 2 2 2 2 2 2 2
left_child=1 3 8 10 -4 6 -3 -7 12 -6 -1 -5 -2
right_child=2 5 4 11 9 7 -8 -9 -10 -11 -12 -13 -14
leaf_value=-0.026973191590247993 0.0038268861035279538 -0.10104287112442023 0.0079031460763327507 -0.014040761177384641 0.028335041242966277 -0.0042277942150377073 -0.015955276104001909 0.0013804051521535297 0.0052229875848277289 0.013289225280683728 -0.012759192152565683 -0.0063170222368792595 -0.0034308841134704686
leaf_weight=83140 286132 2930 1007024 186836 69282 860242 14594 806352 686288 156186 139972 873688 423558
leaf_count=83140 286132 2930 1007024 186836 69282 860242 14594 806352 686288 156186 139972 873688 423558
internal_value=0 -0.00512969 0.00579183 -0.00948159 0.00973423 -0.00181266 -0.0301819 -0.00151437 0.00231113 0.0179125 -0.0180559 -0.00767774 -0.000504705
internal_weight=0 2.96775e+06 2.62847e+06 1.28364e+06 1.23249e+06 1.68412e+06 17524 1.66659e+06 1.39598e+06 225468 223112 1.06052e+06 709690
internal_count=5596224 2967754 2628470 1283636 1232492 1684118 17524 1666594 1395978 225468 223112 1060524 709690
is_linear=0
shrinkage=0.1


Tree=3
num_leaves=14
num_cat=0
split_feature=30 3 2 0 34 24 15 34 15 8 6 26 31
split_gain=13732 4653.85 3306.74 1785.09 1525.75 1581.94 1494.07 1320.22 1120.97 1092.08 981.728 906.678 682.746
threshold=-0.19901436308782966 -0.56903054031314915 1.1535851594330186 -1.0594403649441719 -0.52279030446847552 1.0000000180025095e-35 0.62368986263780724 -0.14091485248326577 -0.44505033154350138 0.51786887549767069 0.4622799204000409 0.074069535106487686 1.0000000180025095e-35
decision_type=2 2 2 2 2 2 2 2 2 2 2 2 2
left_child=2 4 6 -3 5 -2 9 12 -5 -1 -6 -9 -4
right_child=1 3 7 8 10 -7 -8 11 -10 -11 -12 -13 -14
leaf_value=-0.0064033691882649209 0.073572880298127349 -0.006459897640572621 0.011572063886649282 -0.0052007459139279668 -0.011464123583895458 -0.036113176338547846 0.0096729647321902208 0.092111521238967653 0.0016822653810186863 0.0032249328603890189 -0.005555783275324782 0.02905576898145721 0.14673516740823253
leaf_weight=128512 1376 520072 494168 294120 611664 29604 348432 2558 1210152 1413602 520580 21010 374
leaf_count=128512 1376 520072 494168 294120 611664 29604 348432 2558 1210152 1413602 520580 21010 374
internal_value=0 -0.00430602 0.0056985 -0.00140957 -0.00934668 -0.0312414 0.00375883 0.0127763 0.000336477 0.00242256 -0.0087476 0.0358997 0.0116743
internal_weight=0 3.18757e+06 2.40866e+06 2.02434e+06 1.16322e+06 30980 1.89055e+06 518110 1.50427e+06 1.54211e+06 1.13224e+06 23568 494542
internal_count=5596224 3187568 2408656 2024344 1163224 30980 1890546 518110 1504272 1542114 1132244 23568 494542
is_linear=0
shrinkage=0.1


Tree=4
num_leaves=14
num_cat=0
split_feature=1 30 1 44 34 10 24 9 29 4 3 22 4
split_gain=11529.3 3208.51 2321.24 1843.05 1505.89 1419.12 1279.06 1630.45 1116.5 1108.56 1065.49 733.133 673.733
threshold=-0.13431782430381498 -0.85896776773585481 -1.0396324024252357 -0.46718514163203007 1.0000000180025095e-35 0.55273000218443225 1.0000000180025095e-35 1.0000000180025095e-35 1.0000000180025095e-35 0.031766624082907362 1.2705240552406933 0.01288105440693719 -0.50950987731597908
decision_type=2 2 2 2 2 2 2 2 2 2 2 2 2
left_child=2 4 5 12 10 8 7 -3 -1 -8 -2 -6 -4
right_child=1 6 3 -5 11 -7 9 -9 -10 -11 -12 -13 -14
leaf_value=-0.064752863280127623 0.0058979077031494319 0.093946424487693164 -0.0026359603078351408 -0.0059736280568792235 0.090753393069037291 -0.0074766013439091523 -0.0021252619837230286 0.014340611621726288 -0.017074275728896627 0.0030213019432172371 0.013058077774108607 0.026070606182919339 0.0034099085979478736
leaf_weight=5130 954778 3080 317666 818826 1868 816096 654750 15626 115302 1160068 265652 28288 439094
leaf_count=5130 954778 3080 317666 818826 1868 816096 654750 15626 115302 1160068 265652 28288 439094
internal_value=0 0.00409647 -0.00502921 -0.00268563 0.00800194 -0.00897197 0.00143267 0.027448 -0.0191052 0.00116452 0.00745647 0.0300774 0.000872027
internal_weight=0 3.08411e+06 2.51211e+06 1.57559e+06 1.25059e+06 936528 1.83352e+06 18706 120432 1.81482e+06 1.22043e+06 30156 756760
internal_count=5596224 3084110 2512114 1575586 1250586 936528 1833524 18706 120432 1814818 1220430 30156 756760
is_linear=0
shrinkage=0.1


Tree=5
num_leaves=14
num_cat=0
split_feature=30 3 2 0 34 25 125 182 7 5 29 85 106
split_gain=9613.94 3429.37 2377.75 1485.12 1399.65 1428.63 1273.47 1116.91 1061.36 912.248 891.394 1863.27 886.874
threshold=0.22269534719061268 0.59137446161100116 -1.2317082036317728 1.0523610955592391 0.52279030446831731 1.0000000180025095e-35 -0.62939741341152733 -0.089523113707726296 0.51786887549767069 0.46227992040004101 1.0000000180025095e-35 1.0000000180025095e-35 1.0000000180025095e-35
decision_type=2 2 2 2 2 2 2 2 2 2 2 2 2
left_child=1 3 10 7 9 -6 -4 -1 -8 -3 11 -2 -12
right_child=2 4 6 -5 5 -7 8 -9 -10 -11 12 -13 -14
leaf_value=-0.0029760152765097381 -0.12073113452937259 0.010116220040363597 -0.0087390494675305859 0.005719106366773195 -0.072232109635118766 0.033920557360265523 0.006571783918288665 0.0024236023843566901 -0.0028109115190331005 0.0043269309102714109 0.028211673856483811 -0.013389380330689378 -0.011093217682586599
leaf_weight=803920 2280 590778 344766 534030 1326 28898 131452 731800 1455212 504718 5814 5562 455668
leaf_count=803920 2280 590778 344766 534030 1326 28898 131452 731800 1455212 504718 5814 5562 455668
internal_value=0 0.00359261 -0.00478186 0.00117661 0.00803466 0.0292634 -0.00323052 -0.000402994 -0.00203357 0.00744897 -0.0111661 -0.0445982 -0.010598
internal_weight=0 3.19547e+06 2.40075e+06 2.06975e+06 1.12572e+06 30224 1.93143e+06 1.53572e+06 1.58666e+06 1.0955e+06 469324 7842 461482
internal_count=5596224 3195470 2400754 2069750 1125720 30224 1931430 1535720 1586664 1095496 469324 7842 461482
is_linear=0
shrinkage=0.1


Tree=6
num_leaves=14
num_cat=0
split_feature=1 0 1 45 34 9 25 7 15 1 2 1 34
split_gain=8038.02 2441.67 1575.32 1814.4 1427.41 1262.74 1016.51 1480.69 1025.75 982.079 877.089 697.041 669.792
threshold=0.16804272129319944 -0.79852188778393152 1.0314743516608182 0.46152156379274084 -0.06808827734252583 0.55273000218443225 1.0000000180025095e-35 0.32673888200007312 -0.34730433206039185 2.086014260789693 -1.5168552388200431 -2.1973331876100173 2.2668648463735015
decision_type=2 2 2 2 2 2 2 2 2 2 2 2 2
left_child=1 4 3 12 11 9 7 -3 -8 -4 -6 -1 -2
right_child=2 6 5 -5 10 -7 8 -9 -10 -11 -12 -13 -14
leaf_value=-0.11298344240675116 0.005256171148297145 -0.091554580806542538 0.014185781302093052 -0.0015073895698619892 -0.01183654043900406 0.006086240168415794 -0.0057217906449091339 -0.012400494839193511 0.00038256350284655144 0.045502167334247771 -0.0049424585928478162 -0.025334997388287851 0.054125940143954401
leaf_weight=936 833084 2786 109486 690092 223810 818850 338826 15576 1467566 11022 1051744 29632 2814
leaf_count=936 833084 2786 109486 690092 223810 818850 338826 15576 1467566 11022 1051744 29632 2814
internal_value=0 -0.00336305 0.00427092 0.00228763 -0.00666386 0.00749276 -0.0010004 -0.0244103 -0.000762434 0.0170501 -0.0061521 -0.0280188 0.00542069
internal_weight=0 3.13088e+06 2.46535e+06 1.52599e+06 1.30612e+06 939358 1.82475e+06 18362 1.80639e+06 120508 1.27555e+06 30568 835898
internal_count=5596224 3130876 2465348 1525990 1306122 939358 1824754 18362 1806392 120508 1275554 30568 835898
is_linear=0
shrinkage=0.1


Tree=7
num_leaves=14
num_cat=0
split_feature=30 1 34 4 15 45 10 24 125 15 5 24 88
split_gain=6841 2683.58 1716.6 1385.17 1253.85 1034.48 899.48 1076.88 781.776 673.244 656.071 639.03 706.85
threshold=-0.28632258924547482 -0.76859821337384904 -0.020749881672027442 0.44726813138180127 -0.45064998988851668 -0.46750934584826881 0.39535265251856883 1.0000000180025095e-35 0.59380193785034863 -0.43064975226193175 0.57374535112915481 0.11649911292608911 1.9978949848049068
decision_type=2 2 2 2 2 2 2 2 2 2 2 2 2
left_child=2 6 3 8 -3 -6 7 -2 -1 -8 -5 12 -4
right_child=1 4 11 10 5 -7 9 -9 -10 -11 -12 -13 -14
leaf_value=0.00048208928255501411 0.037530306497410341 -0.0056407554913193367 0.047012584447580968 0.008685041725458394 0.0046906096176810522 -0.00097590573229206108 -0.011225313274086025 -0.019324478033525324 0.006909937002282731 -0.0047949115468730544 0.0031733365262547235 0.01790529675852431 0.26546618778650699
leaf_weight=1040886 3482 420266 5800 603552 431272 1273556 197562 77054 231250 925744 336296 49352 152
leaf_count=1040886 3482 420266 5800 603552 431272 1273556 197562 77054 231250 925744 336296 49352 152
internal_value=0 -0.00288545 0.00423654 0.00380146 -0.000748466 0.000457558 -0.00665777 -0.0168663 0.00165055 -0.00592586 0.00671285 0.0216383 0.0525914
internal_weight=0 3.32894e+06 2.26729e+06 2.21198e+06 2.12509e+06 1.70483e+06 1.20384e+06 80536 1.27214e+06 1.12331e+06 939848 55304 5952
internal_count=5596224 3328936 2267288 2211984 2125094 1704828 1203842 80536 1272136 1123306 939848 55304 5952
is_linear=0
shrinkage=0.1


Tree=8
num_leaves=14
num_cat=0
split_feature=1 30 4 8 15 29 45 34 24 1 51 95 125
split_gain=5669.22 1703.27 1344.79 1490.92 1334.95 1320.11 1223.22 1094.11 902.323 789.655 788.08 768.489 661.816
threshold=-0.16739940527579394 -1.3314672518654389 -1.0879685849711509 0.64636622360486595 0.42942636598039402 1.0000000180025095e-35 -0.56085908653342598 -0.96813019346039697 1.0000000180025095e-35 -1.0396324024252357 2.4303814642377226 0.39535265251856883 -0.42457380852353038
decision_type=2 2 2 2 2 2 2 2 2 2 2 2 2
left_child=2 7 3 5 8 -1 9 11 -3 -4 -9 -2 -8
right_child=1 4 6 -5 -6 -7 12 10 -10 -11 -12 -13 -14
leaf_value=-0.058641611669785425 -0.0136252212986626 0.020877451081932369 -0.0030559537130918722 -0.0039379415423959601 0.0064386676398229389 -0.0127141811578314 -0.0099495073092891323 0.025336741779716454 0.0003118015409574679 0.0031457729791817069 0.1183570645392986 0.0072787006667585728 -0.0033438917680440865
leaf_weight=6440 18122 21564 350146 412372 471626 221970 187692 21036 2002300 496350 952 595274 790380
leaf_count=6440 18122 21564 350146 412372 471626 221970 187692 21036 2002300 496350 952 595274 790380
internal_value=0 0.00282436 -0.0035868 -0.00752786 0.00164744 -0.0140091 -0.00220272 0.00744678 0.000530926 0.000580481 0.0293642 0.00666112 -0.00461151
internal_weight=0 3.13087e+06 2.46535e+06 640782 2.49549e+06 228410 1.82457e+06 635384 2.02386e+06 846496 21988 613396 978072
internal_count=5596224 3130874 2465350 640782 2495490 228410 1824568 635384 2023864 846496 21988 613396 978072
is_linear=0
shrinkage=0.1


Tree=9
num_leaves=14
num_cat=0
split_feature=0 4 15 34 9 28 0 9 69 23 82 88 94
split_gain=4976.94 2511.69 1790.94 1307.28 1266.41 1113.55 1025.79 986.124 848.877 800.268 713.213 664.366 492.961
threshold=-0.66408552635321827 1.0918180927254399 0.42942636598039402 0.43565858705693106 0.75995879436524916 1.0000000180025095e-35 0.79792163078341771 1.083260593286129 1.5649251273372125 0.016495630798515504 1.9978949848049063 1.7877174890778296 1.7743030041022527
decision_type=2 2 2 2 2 2 2 2 2 2 2 2 2
left_child=3 2 6 9 5 -3 -2 8 -5 10 -1 -6 -11
right_child=1 4 -4 7 11 -7 -8 -9 -10 12 -12 -13 -14
leaf_value=-0.057243963596724116 -0.0018392756357168258 0.053337012162620524 0.0057728246156450872 -0.0027683226327223352 0.0059473994802716219 0.012525976894612543 0.002379955932347281 -0.0069836858060652292 0.0084244207199195686 -0.018579051696295951 -0.29773544059353302 -0.0062405472567668117 0.032735619795628085
leaf_weight=3370 1577738 6898 603962 1086200 390354 217344 907762 630874 72268 46864 128 50512 1950
leaf_count=3370 1577738 6898 603962 1086200 390354 217344 907762 630874 72268 46864 128 50512 1950
internal_value=0 0.00208861 0.000888538 -0.00425804 0.00766302 0.0137814 -0.000298315 -0.00380249 -0.00207009 -0.0198401 -0.0660441 0.00455097 -0.0165292
internal_weight=0 3.75457e+06 3.08946e+06 1.84165e+06 665108 224242 2.4855e+06 1.78934e+06 1.15847e+06 52312 3498 440866 48814
internal_count=5596224 3754570 3089462 1841654 665108 224242 2485500 1789342 1158468 52312 3498 440866 48814
is_linear=0
shrinkage=0.1


Tree=10
num_leaves=14
num_cat=0
split_feature=30 4 34 125 30 34 34 7 25 27 4 23 176
split_gain=4138.63 2602.93 1194.41 1095.19 1081.49 978.54 938.88 863.588 850.632 668.313 588.24 572.234 423.357
threshold=0.82528275723627786 0.12279684407384425 1.1881597828833586 0.32594649106525658 -0.93293443662370079 -0.06808827734252583 -1.7395877846822563 0.51786887549767069 1.0000000180025095e-35 1.0000000180025095e-35 -1.6315285341894847 0.016495630798515504 -2.1096304179942877
decision_type=2 2 2 2 2 2 2 2 2 2 2 2 2
left_child=1 4 3 -3 12 11 -6 9 -4 -7 -9 -2 -1
right_child=5 2 8 -5 6 7 -8 10 -10 -11 -12 -13 -14
leaf_value=-0.014020436950371426 -0.073710564480612611 0.0026954579985414644 -0.057619800648787238 0.0086384021863628781 -0.025521361860269334 -0.046983028913277949 -0.0019311798520160275 -0.011340954487575244 0.027442351771159713 0.0057936518711546175 -0.0042599445982821095 -0.018569184581694119 0.0036329750427137545
leaf_weight=13974 2010 1675690 1226 380502 17054 2458 1574486 130622 28612 100576 1151854 29552 487608
leaf_count=13974 2010 1675690 1226 380502 17054 2458 1574486 130622 28612 100576 1151854 29552 487608
internal_value=0 0.00158355 0.00408346 0.00379521 -0.000907883 -0.00467013 -0.00218396 -0.00427351 0.0239473 0.0045346 -0.00498116 -0.0220808 0.00314115
internal_weight=0 4.17915e+06 2.08603e+06 2.05619e+06 2.09312e+06 1.41707e+06 1.59154e+06 1.38551e+06 29838 103034 1.28248e+06 31562 501582
internal_count=5596224 4179152 2086030 2056192 2093122 1417072 1591540 1385510 29838 103034 1282476 31562 501582
is_linear=0
shrinkage=0.1


Tree=11
num_leaves=14
num_cat=0
split_feature=30 4 52 34 24 4 7 75 13 3 9 125 6
split_gain=3522.65 1990.66 1077.66 1027.7 1444.35 983.603 904.372 823.857 797.986 742.63 704.175 695.575 692.437
threshold=-0.65905785182076537 -0.45162701992903376 -0.10599352804325347 -1.4256706222545941 1.0000000180025095e-35 1.5560744540889371 0.79800231664502574 1.5649251273372122 0.29827818708308002 0.095672481891823827 0.7920466387755597 0.32594649106525658 0.57374535112915481
decision_type=2 2 2 2 2 2 2 2 2 2 2 2 2
left_child=5 3 6 4 -2 7 -3 11 -9 -4 -7 -1 -5
right_child=1 2 9 12 -6 10 -8 8 -10 -11 -12 -13 -14
leaf_value=0.0023344790208660259 0.11138778671289462 0.009032907260692306 -0.0050128057482104514 -0.006505990953108113 -0.039659216729429764 0.016842788262673953 0.0011414288273151256 -0.076872497673923332 -0.0047240397345525023 -0.000122142954225314 0.0049778273575275638 0.007800264167927555 -0.0020708286507873969
leaf_weight=1246588 666 190172 434498 753836 12802 88528 614386 1556 103696 1087798 114996 286304 660398
leaf_count=1246588 666 190172 434498 753836 12802 88528 614386 1556 103696 1087798 114996 286304 660398
internal_value=0 -0.00175717 4.64847e-05 -0.00469675 -0.0321899 0.00358229 0.00300672 0.00276771 -0.00579065 -0.00151805 0.0101388 0.00335534 -0.00443492
internal_weight=0 3.75456e+06 2.32685e+06 1.4277e+06 13468 1.84167e+06 804558 1.63814e+06 105252 1.5223e+06 203524 1.53289e+06 1.41423e+06
internal_count=5596224 3754556 2326854 1427702 13468 1841668 804558 1638144 105252 1522296 203524 1532892 1414234
is_linear=0
shrinkage=0.1


Tree=12
num_leaves=14
num_cat=0
split_feature=1 15 15 4 46 10 4 28 45 17 18 75 69
split_gain=2976.29 1221.86 1048.28 1006.66 1108.31 998.906 814.929 1031.46 654.794 488.007 423.591 290.296 270.528
threshold=0.16804272129319944 -0.37029323730319719 0.42942636598039402 -1.1251380526611252 -0.27986074507244435 0.75995879436524916 2.3954761808317984 0.087143060469433889 0.26767543470612637 -0.24384306701680381 0.31313826901062813 1.0914889964111378 1.1129736855254757
decision_type=2 2 2 2 2 2 2 2 2 2 2 2 2
left_child=1 9 6 5 -5 -3 8 -8 -2 -1 12 -11 -4
right_child=2 3 10 4 -6 -7 7 -9 -10 11 -12 -13 -14
leaf_value=0.0035514706650329776 0.0038809019876211003 -0.010866229322031988 0.0067819960699110589 0.0022862338928735407 -0.0024320906549412883 -0.0018719324836569237 0.12234758034349461 0.016215008821213097 8.4556550844219408e-05 -0.0059971529907580446 -0.0038159961108444247 -0.012249663648017911 0.013975473832233926
leaf_weight=47378 699870 184970 353748 1005076 986438 371428 958 20742 1295006 446518 33678 89068 61346
leaf_count=47378 699870 184970 353748 1005076 986438 371428 958 20742 1295006 446518 33678 89068 61346
internal_value=0 -0.00204643 0.00259887 -0.00110148 -5.08497e-05 -0.00486201 0.00162611 0.0209005 0.00141644 -0.00617642 0.00697 -0.00703695 0.00784511
internal_weight=0 3.13088e+06 2.46535e+06 2.54791e+06 1.99151e+06 556398 2.01658e+06 21700 1.99488e+06 582964 448772 535586 415094
internal_count=5596224 3130876 2465348 2547912 1991514 556398 2016576 21700 1994876 582964 448772 535586 415094
is_linear=0
shrinkage=0.1


Tree=13
num_leaves=14
num_cat=0
split_feature=0 4 52 3 8 24 14 112 34 25 82 90 32
split_gain=2695.5 1924.48 1420.38 991.594 985.682 952.487 1338.44 1091.65 912.587 723.296 806.865 671.041 644.66
threshold=-1.3310329597477177 0.44726813138180127 0.10744562813222654 -0.59737279252190445 0.79800231664502552 1.0000000180025095e-35 0.29827818708308002 1.0000000180025095e-35 0.96813019346059526 0.57872028487192095 1.8295878146042421 0.39535265251856894 2.2773257063162355
decision_type=2 2 2 2 2 2 2 2 2 2 2 2 2
left_child=8 2 3 -2 -4 6 -3 -7 9 10 -1 -10 -11
right_child=1 5 4 -5 -6 7 -8 -9 11 12 -12 -13 -14
leaf_value=-0.054278722102893098 -0.0014752071903958897 0.09979928996225533 -0.0089299503031536678 0.0028410650110039562 -0.0018684316683930419 -0.023723828691591956 0.01624687160639661 0.0035153062585703506 0.012747880520576699 -0.016023194104414541 -0.2533928021495403 -0.005754846756847439 -0.22554740060020137
leaf_weight=3521 991844 2200 264640 1148644 781116 14842 14918 1690804 20216 18833 216 644282 148
leaf_count=3521 991844 2200 264640 1148644 781116 14842 14918 1690804 20216 18833 216 644282 148
internal_value=0 0.000821149 -0.000634756 0.000841022 -0.00365543 0.00351384 0.026985 0.00327828 -0.00586574 -0.0255742 -0.0657876 -0.00519194 -0.0176569
internal_weight=0 4.90901e+06 3.18624e+06 2.14049e+06 1.04576e+06 1.72276e+06 17118 1.70565e+06 687216 22718 3737 664498 18981
internal_count=5596224 4909008 3186244 2140488 1045756 1722764 17118 1705646 687216 22718 3737 664498 18981
is_linear=0
shrinkage=0.1


Tree=14
num_leaves=14
num_cat=0
split_feature=30 125 4 15 10 34 8 26 5 22 118 4 52
split_gain=2383.48 1676.74 1497.17 967.31 896.432 775.226 806.775 638.06 531.703 487.573 454.744 397.017 305.942
threshold=-0.82528275723627764 -1.0000000180025095e-35 -1.1251380526611252 0.26016899557153289 0.7920466387755597 1.0000000180025095e-35 0.51786887549767069 1.0000000180025095e-35 0.77917789385857394 0.081608900867680231 1.0000000180025095e-35 -0.056326329673782198 -0.29346266378552949
decision_type=2 2 2 2 2 2 2 2 2 2 2 2 2
left_child=5 11 4 -4 -3 6 7 -1 -8 10 -7 12 -2
right_child=1 2 3 -5 -6 9 8 -9 -10 -11 -12 -13 -14
leaf_value=0.045006593606671863 -0.0052533482882613286 -0.0097866768019689923 -0.0002310488119148134 0.0043488947674268016 -0.0016633537542556798 0.14421139053927964 0.0045437998190190855 -0.0065625541905123654 -0.0023035120843424646 0.014143214416798729 0.039126640980701621 -0.0030324538500964351 -0.010824544250832206
leaf_weight=2458 244870 227000 2235104 581034 338302 463 1156444 100442 125734 27807 3724 387862 164980
leaf_count=2458 244870 227000 2235104 581034 338302 463 1156444 100442 125734 27807 3724 387862 164980
internal_value=0 -0.00120174 -0.000228853 0.000713899 -0.00492532 0.0035441 0.00318862 -0.00533071 0.00387233 0.0189335 0.050747 -0.00532572 -0.00749596
internal_weight=0 4.17915e+06 3.38144e+06 2.81614e+06 565302 1.41707e+06 1.38508e+06 102900 1.28218e+06 31994 4187 797712 409850
internal_count=5596224 4179152 3381440 2816138 565302 1417072 1385078 102900 1282178 31994 4187 797712 409850
is_linear=0
shrinkage=0.1


Tree=15
num_leaves=14
num_cat=0
split_feature=30 4 125 15 7 34 6 112 2 183 109 92 149
split_gain=2114.8 1557.72 1487 995.465 962.391 960.549 656.235 654.427 617.307 536.144 467.264 317.332 299.48
threshold=0.82528275723627786 1.1502267703276117 0.32594649106525658 -0.21168514546220255 0.74096186698392041 1.6913803968097862 0.77917789385857394 1.0000000180025095e-35 -1.5493212367519973 1.2911625224013277 0.74781470871691502 0.39535265251856894 0.77094397536034498
decision_type=2 2 2 2 2 2 2 2 2 2 2 2 2
left_child=1 2 3 -1 5 -3 8 -6 10 -10 -2 -8 -4
right_child=6 4 12 -5 7 -7 11 -9 9 -11 -12 -13 -14
leaf_value=-0.0043827417596117163 -0.016273141564970253 0.0091472687308716341 0.0050840879137632466 0.00024436270254129633 -0.059754105701396582 0.045644859843921318 0.034215644545750004 0.0026481853820035043 -0.0039447036557539433 0.0029303970883611322 -0.0057265834197782021 0.0024949627054733831 -0.0028024124140038783
leaf_weight=585940 64206 265812 631884 2251726 1688 7412 3230 382568 965988 128520 121512 133616 52122
leaf_count=585940 64206 265812 631884 2251726 1688 7412 3230 382568 965988 128520 121512 133616 52122
internal_value=0 0.00113198 0.000297785 -0.000711072 0.0056002 0.0101374 -0.00333838 0.00237406 -0.00404195 -0.00313741 -0.00937272 0.00324367 0.00448313
internal_weight=0 4.17915e+06 3.52167e+06 2.83767e+06 657480 273224 1.41707e+06 384256 1.28023e+06 1.09451e+06 185718 136846 684006
internal_count=5596224 4179152 3521672 2837666 657480 273224 1417072 384256 1280226 1094508 185718 136846 684006
is_linear=0
shrinkage=0.1


Tree=16
num_leaves=14
num_cat=0
split_feature=30 126 4 125 10 34 24 88 32 97 5 24 4
split_gain=1858.28 1503.57 1191.8 1004.02 855.774 725.496 658.027 760.782 604.391 573.289 433.924 399.862 359.104
threshold=-1.3314672518654389 -0.30105525071234357 -1.0879685849711509 0.32594649106525658 0.75995879436524916 -0.96813019346039697 0.5757385215840819 1.8295878146042426 -2.2755722693444183 0.39535265251856883 0.46227992040004101 1.9996681945976298 1.1309628501353142
decision_type=2 2 2 2 2 2 2 2 2 2 2 2 2
left_child=5 12 4 -4 -3 9 7 -7 -8 11 -11 -1 -2
right_child=1 2 3 -5 -6 6 8 -9 -10 10 -12 -13 -14
leaf_value=-0.0089897215188851753 -0.0050257666116952631 -0.0088131505983826026 5.0090996834234274e-05 0.0043434785372709608 -0.0011591559441167581 0.049724766570026384 0.21620286327560209 0.24393930976914469 0.013328727674030259 0.0059256253412615159 -0.0011512613649054719 -0.07258321314374426 0.00083185986124391462
leaf_weight=19346 819972 219832 2626656 687180 435396 3508 148 214 18848 540944 103166 1042 119972
leaf_count=19346 819972 219832 2626656 687180 435396 3508 148 214 18848 540944 103166 1042 119972
internal_value=0 -0.000681801 0.000169869 0.000940398 -0.00372711 0.00487033 0.0224428 0.0608913 0.0149093 0.00426956 0.00479213 -0.0122399 -0.00427811
internal_weight=0 4.90901e+06 3.96906e+06 3.31384e+06 655228 687216 22718 3722 18996 664498 644110 20388 939944
internal_count=5596224 4909008 3969064 3313836 655228 687216 22718 3722 18996 664498 644110 20388 939944
is_linear=0
shrinkage=0.1


Tree=17
num_leaves=14
num_cat=0
split_feature=0 126 4 125 9 34 51 20 91 23 6 38 69
split_gain=1673.7 1403.44 1154.58 1014.6 879.261 685.058 584.68 676.116 565.668 511.309 455.358 393.243 352.692
threshold=-1.3310329597477177 1.0000000180025095e-35 1.1502267703276117 -0.28392603345340639 0.75995879436524916 0.96813019346059526 -2.4303814642377217 0.67192143598263965 0.39535265251856888 0.048260340513810493 0.4622799204000409 -1.4502968704218053 1.368886070305088
decision_type=2 2 2 2 2 2 2 2 2 2 2 2 2
left_child=5 2 3 -2 -4 6 7 -1 11 -8 -10 -7 -3
right_child=1 12 4 -5 -6 8 9 -9 10 -11 -12 -13 -14
leaf_value=-0.039982153569281843 -0.0042847278864438293 0.0035923740351804902 0.0092400946096890708 -7.0371245881060059e-06 0.0011327322430510608 0.030670766627434606 -0.07386088443582782 -0.21963847575769313 -0.005718581158445854 -0.014103929337228427 0.0015309893613788166 0.0018267526241927377 0.011258888555239288
leaf_weight=646 699850 877760 202066 2669140 395782 7446 1541 310 540944 20221 103166 12942 64410
leaf_count=646 699850 877760 202066 2669140 395782 7446 1541 310 540944 20221 103166 12942 64410
internal_value=0 0.000647056 -0.000176974 -0.000895654 0.00387293 -0.00462213 -0.0216978 -0.0982389 -0.00403834 -0.0183354 -0.00455743 0.012361 0.00411648
internal_weight=0 4.90901e+06 3.96684e+06 3.36899e+06 597848 687216 22718 956 664498 21762 644110 20388 942170
internal_count=5596224 4909008 3966838 3368990 597848 687216 22718 956 664498 21762 644110 20388 942170
is_linear=0
shrinkage=0.1


Tree=18
num_leaves=14
num_cat=0
split_feature=15 1 46 1 19 7 69 76 8 75 105 77 33
split_gain=1563.78 1295.96 1170.87 1069.72 883.242 544.523 615.582 395.811 356.873 384.893 299.902 200.095 159.966
threshold=-1.0000000180025095e-35 0.69170559737242987 0.46074192515932139 -0.70707069932590871 -0.84384848897028519 1.0677007489839936 0.98563980357052527 1.8121883455463188 1.0147933793078889 1.0914889964111378 1.0000000180025095e-35 0.57993983437841201 2.3177608950609767
decision_type=2 2 2 2 2 2 2 2 2 2 2 2 2
left_child=4 2 3 -2 12 6 -3 -4 9 -6 -7 -10 -1
right_child=1 5 7 -5 8 10 -8 -9 11 -11 -12 -13 -14
leaf_value=0.0037297515302659326 -0.0016491935685773328 0.0036965270120246259 -0.0032059346615227451 0.0025192836856231717 -0.0051645681897492402 -0.085742907184595471 0.011326616555578116 -0.018772336912713617 0.0037297365153028542 -0.012898702638400969 -0.0013345955793592108 -0.003206564754134722 0.039135761418732706
leaf_weight=137718 1018940 852132 771574 1555312 402198 422 120716 16688 46034 76600 165870 430732 1288
leaf_count=137718 1018940 852132 771574 1555312 402198 422 120716 16688 46034 76600 165870 430732 1288
internal_value=0 0.000824282 -0.000163284 0.000869318 -0.00339004 0.00373938 0.00464331 -0.00353549 -0.00447348 -0.00640191 -0.0015488 -0.00253683 0.00405782
internal_weight=0 4.50165e+06 3.36251e+06 2.57425e+06 1.09457e+06 1.13914e+06 972848 788262 955564 478798 166292 476766 139006
internal_count=5596224 4501654 3362514 2574252 1094570 1139140 972848 788262 955564 478798 166292 476766 139006
is_linear=0
shrinkage=0.1


Tree=19
num_leaves=14
num_cat=0
split_feature=15 5 23 124 9 125 19 6 112 105 27 69 33
split_gain=1454.28 1186.45 1050.24 1832.05 1135.18 936.067 854.854 578.247 353.046 345.035 331.822 330.553 170.161
threshold=1.0000000180025095e-35 0.36199301300068693 1.0000000180025095e-35 0.37941644695586912 1.0000000180025095e-35 -1.0000000180025095e-35 0.79916104183265302 0.4622799204000409 0.30600982008563038 0.30600982008563044 1.0000000180025095e-35 1.9370149686529452 -2.2994186945583595
decision_type=2 2 2 2 2 2 2 2 2 2 2 2 2
left_child=1 2 3 -1 -4 8 9 -7 -3 10 -2 -11 -8
right_child=6 5 4 -5 -6 7 12 -9 -10 11 -12 -13 -14
leaf_value=-0.071667032564597319 -0.043686867277857845 -0.021460358076845359 0.019524774285966481 -0.0014462756343629273 0.0017296693056038353 -0.0029857329829882377 -0.039785594075854698 0.00015074249338625729 -0.0047355617419190688 0.0038567621894687225 0.021775658882413618 0.019685492026462352 -0.0037101050668569579
leaf_weight=5266 814 12862 37026 12618 1126788 886096 1320 1746074 674924 925290 15884 13384 137878
leaf_count=5266 814 12862 37026 12618 1126788 886096 1320 1746074 674924 925290 15884 13384 137878
internal_value=0 -0.000794899 0.00192625 -0.022123 0.00229581 -0.00176346 0.00326919 -0.000905123 -0.00504833 0.00433592 0.0185845 0.00408245 -0.00405221
internal_weight=0 4.50165e+06 1.1817e+06 17884 1.16381e+06 3.31996e+06 1.09457e+06 2.63217e+06 687786 955372 16698 938674 139198
internal_count=5596224 4501654 1181698 17884 1163814 3319956 1094570 2632170 687786 955372 16698 938674 139198
is_linear=0
shrinkage=0.1


Tree=20
num_leaves=14
num_cat=0
split_feature=3 52 51 93 112 26 2 4 28 176 58 57 123
split_gain=1354.86 1321.95 1077.07 912.65 821.734 1624.06 780.111 771.713 726.107 435.222 376.75 360.709 300.924
threshold=-0.046456665099670412 -0.04839640022779769 -0.12477458231178186 1.0000000180025095e-35 1.0000000180025095e-35 0.010982416054017159 1.189725564983146 -2.3954761808317975 1.0000000180025095e-35 2.3177616082044969 0.2503115434646363 0.14094860014054741 0.97710516485793286
decision_type=2 2 2 2 2 2 2 2 2 2 2 2 2
left_child=2 9 3 8 5 -3 -6 -5 -1 11 12 -2 -4
right_child=1 4 10 7 6 -7 -8 -9 -10 -11 -12 -13 -14
leaf_value=0.082402969745665577 0.0072626946543189897 0.06608322003388227 -0.0054011439972002232 -0.017970080970473853 -0.00071537549882905041 -0.030855160025820724 0.0035078546658346126 -0.00037424742296775514 0.015812773524138776 0.029584922282078225 -0.0089316798790591324 0.0027309104506713054 -0.00048492295300123071
leaf_weight=1866 351448 1930 343770 25250 1567424 16534 606682 1936798 13372 7274 177564 351104 195208
leaf_count=1866 351448 1930 343770 25250 1567424 16534 606682 1936798 13372 7274 177564 351104 195208
internal_value=0 0.00149901 -0.00161507 -0.000411359 0.000284706 -0.0207224 0.000463112 -0.000600692 0.0239672 0.00524987 -0.00493671 0.00499791 -0.00362058
internal_weight=0 2.9024e+06 2.69383e+06 1.97729e+06 2.19257e+06 18464 2.17411e+06 1.96205e+06 15238 709826 716542 702552 538978
internal_count=5596224 2902396 2693828 1977286 2192570 18464 2174106 1962048 15238 709826 716542 702552 538978
is_linear=0
shrinkage=0.1


Tree=21
num_leaves=14
num_cat=0
split_feature=125 5 29 8 105 183 7 8 149 106 28 69 33
split_gain=1214.8 1043.09 978.222 1972.46 1116.4 823.865 830.629 678.072 617.14 336.896 331.071 291.671 139.16
threshold=1.0000000180025095e-35 0.57374535112915481 1.0000000180025095e-35 1.0000000180025095e-35 0.30600982008563044 -0.1021326834541188 0.51786887549767069 0.51786887549767069 0.77094397536034498 0.30600982008563032 1.0000000180025095e-35 1.9370149686529452 -2.3388943249735372
decision_type=2 2 2 2 2 2 2 2 2 2 2 2 2
left_child=1 2 3 -1 -4 7 -7 -3 9 10 -2 -11 -10
right_child=8 5 4 -5 -6 6 -8 -9 12 11 -12 -13 -14
leaf_value=-0.070140133177088268 0.10122462790700254 -0.011880465909001079 0.014264082117730337 -0.0033729398028388997 0.00094003841102422944 0.0076784130982901697 -0.0011356231737674146 -0.0032649661126426181 -0.035945502754068728 0.003432317223539651 0.015563898196768323 0.018348327858487345 -0.0029225961392719537
leaf_weight=5698 464 100314 65312 19800 1692304 115242 1480542 1022444 1288 925070 16340 13298 138108
leaf_count=5698 464 100314 65312 19800 1692304 115242 1480542 1022444 1288 925070 16340 13298 138108
internal_value=0 -0.000726506 0.00115304 -0.0182933 0.00143515 -0.00195932 -0.000499104 -0.00403473 0.00298792 0.00389502 0.0179292 0.0036437 -0.00322772
internal_weight=0 4.50166e+06 1.78311e+06 25498 1.75762e+06 2.71854e+06 1.59578e+06 1.12276e+06 1.09457e+06 955172 16804 938368 139396
internal_count=5596224 4501656 1783114 25498 1757616 2718542 1595784 1122758 1094568 955172 16804 938368 139396
is_linear=0
shrinkage=0.1


Tree=22
num_leaves=14
num_cat=0
split_feature=126 6 28 7 12 183 8 7 150 111 26 75 173
split_gain=1176.55 975.069 1046.39 2045.37 1072.26 755.026 804.655 588.887 510.726 344.862 339.841 323.186 114.694
threshold=-1.0000000180025095e-35 0.57374535112915481 1.0000000180025095e-35 1.0000000180025095e-35 0.30600982008563049 1.0000000180025095e-35 0.51786887549767069 0.51786887549767069 -0.78575100183745861 0.30600982008563038 1.0000000180025095e-35 1.9370149686529454 2.3347918247868078
decision_type=2 2 2 2 2 2 2 2 2 2 2 2 2
left_child=8 2 3 -2 -4 6 -3 -7 12 10 -10 -11 -1
right_child=1 5 4 -5 -6 7 -8 -9 9 11 -12 -13 -14
leaf_value=0.0024388395643385762 0.071837759015123778 -0.0075991207986005616 -0.014031002506339063 0.0038007686312212375 -0.00091136457958357537 0.01113865907853087 0.001122041521746126 0.0031590466092280486 0.046963594116278533 -0.0032902285490165901 -0.021141639536964376 -0.019034631192091464 0.032511384817335058
leaf_weight=138066 5694 114012 64676 19726 1692284 101550 1467728 1035986 768 925298 15932 13224 1280
leaf_count=138066 5694 114012 64676 19726 1692284 101550 1467728 1035986 768 925298 15932 13224 1280
internal_value=0 0.000714977 -0.00110287 0.0190408 -0.00139432 0.00190651 0.000493419 0.0038714 -0.0029405 -0.00376553 -0.0180096 -0.00351207 0.00271508
internal_weight=0 4.50166e+06 1.78238e+06 25420 1.75696e+06 2.71928e+06 1.58174e+06 1.13754e+06 1.09457e+06 955222 16700 938522 139346
internal_count=5596224 4501656 1782380 25420 1756960 2719276 1581740 1137536 1094568 955222 16700 938522 139346
is_linear=0
shrinkage=0.1


Tree=23
num_leaves=14
num_cat=0
split_feature=15 16 4 51 19 10 119 75 101 26 6 34 26
split_gain=1147.19 967.098 840.866 755.991 622.178 615.401 326.665 329.529 205.815 369.516 183.686 129.127 104.353
threshold=-1.0000000180025095e-35 -0.36447439648867869 -0.40306745120140469 -0.10599349039080692 -0.84384848897028519 0.4928464026387615 1.2419814253676795 1.4692297621795867 0.30600982008563044 1.0000000180025095e-35 0.92446752976379065 1.3069757611710242 1.0000000180025095e-35
decision_type=2 2 2 2 2 2 2 2 2 2 2 2 2
left_child=4 8 5 -4 11 -3 7 -6 9 -2 -10 -1 -13
right_child=1 2 3 -5 6 -7 -8 -9 10 -11 -12 12 -14
leaf_value=0.0027269127220533353 0.084494469952621123 -0.0069463948001952077 0.0051859941932715483 0.0013239225360799508 -0.004228496006781505 7.0788136113592322e-05 -9.0386072096803e-05 -0.013282520635583063 -0.0038192016649147998 0.0057034056371516499 -0.00039725939661710148 0.062474252398461716 0.014046297839337842
leaf_weight=133474 620 139990 718988 1717790 723914 1165416 189088 42562 519170 14894 224786 488 5044
leaf_count=133474 620 139990 718988 1717790 723914 1165416 189088 42562 519170 14894 224786 488 5044
internal_value=0 0.000706003 0.0013663 0.00246345 -0.00290359 -0.000681725 -0.00381292 -0.00473126 -0.00254754 0.0088522 -0.00278526 0.0033474 0.0183183
internal_weight=0 4.50165e+06 3.74218e+06 2.43678e+06 1.09457e+06 1.30541e+06 955564 766476 759470 15514 743956 139006 5532
internal_count=5596224 4501654 3742184 2436778 1094570 1305406 955564 766476 759470 15514 743956 139006 5532
is_linear=0
shrinkage=0.1


Tree=24
num_leaves=14
num_cat=0
split_feature=126 5 4 7 8 27 46 150 23 106 26 69 173
split_gain=1086.21 842.594 675.497 620.283 653.815 538.269 504.927 501.916 494.725 327.068 341.464 271.437 115.502
threshold=1.0000000180025095e-35 0.77917789385857394 1.4340054944769773 0.51786887549767069 0.83126222897619739 1.0000000180025095e-35 -0.064047345308477735 0.7740778775530065 1.0000000180025095e-35 0.30600982008563032 1.0000000180025095e-35 1.9370149686529452 -2.3388945444744063
decision_type=2 2 2 2 2 2 2 2 2 2 2 2 2
left_child=1 2 6 5 -5 -3 -1 9 -4 10 -2 -11 -9
right_child=7 3 8 4 -6 -7 -8 12 -10 11 -12 -13 -14
leaf_value=0.0016357636981159615 0.10505150757850346 -0.037380214266132021 -0.023167481130472102 -0.0056432054930623497 -0.0015006594508469953 0.0054166888372932515 -0.0013800966719651653 -0.032610846231047007 0.0059637314234702006 0.0031929336560332488 0.015176031715552353 0.017607918409697484 -0.002502475516896331
leaf_weight=1003916 434 3008 5964 534680 1325516 127808 1241874 1286 258890 925218 16278 13250 138102
leaf_count=1003916 434 3008 5964 534680 1325516 127808 1241874 1286 258890 925218 16278 13250 138102
internal_value=0 -0.000686982 0.000531355 -0.00222329 -0.00269136 0.00443261 -3.19428e-05 0.00282537 0.00530775 0.00364339 0.01751 0.00339646 -0.00278026
internal_weight=0 4.50166e+06 2.51064e+06 1.99101e+06 1.8602e+06 130816 2.24579e+06 1.09457e+06 264854 955180 16712 938468 139388
internal_count=5596224 4501656 2510644 1991012 1860196 130816 2245790 1094568 264854 955180 16712 938468 139388
is_linear=0
shrinkage=0.1


Tree=25
num_leaves=14
num_cat=0
split_feature=15 16 2 52 19 10 113 7 107 27 5 33 108
split_gain=1037.81 873.032 731.417 847.675 635.717 610.209 311.724 303.049 182.038 375.7 154.759 133.613 87.2021
threshold=1.0000000180025095e-35 0.37973248824070915 0.72194928388869684 0.32121111080042858 0.79916104183265302 1.0000000180025095e-35 1.2419814253676795 1.0677007489839936 0.30600982008563044 1.0000000180025095e-35 0.92446752976379087 -2.2994186945583595 1.0000000180025095e-35
decision_type=2 2 2 2 2 2 2 2 2 2 2 2 2
left_child=1 2 3 -1 6 -4 7 -2 9 -3 -10 12 -6
right_child=4 8 5 -5 11 -7 -8 -9 10 -11 -12 -13 -14
leaf_value=-0.0010894643643330022 0.0062667166294909891 -0.084575129202868055 -0.02417762153184741 -0.0050833888524661613 -0.11433747880870389 0.0014565724023181312 4.4651664309001793e-05 0.002235982063642462 0.0036133851154324988 -0.0051174391628926088 0.00044464510752257285 -0.0032488013066122538 -0.026866709665509199
leaf_weight=2143478 445412 620 9384 706586 126 891280 189036 320924 515672 14800 219834 137878 1194
leaf_count=2143478 445412 620 9384 706586 126 891280 189036 320924 515672 14800 219834 137878 1194
internal_value=0 -0.000671502 -0.00129462 -0.00207964 0.00276169 0.00118949 0.00368159 0.00457874 0.00244085 -0.00831224 0.00266629 -0.00355194 -0.0352162
internal_weight=0 4.50165e+06 3.75073e+06 2.85006e+06 1.09457e+06 900664 955372 766336 750926 15420 735506 139198 1320
internal_count=5596224 4501654 3750728 2850064 1094570 900664 955372 766336 750926 15420 735506 139198 1320
is_linear=0
shrinkage=0.1


Tree=26
num_leaves=14
num_cat=0
split_feature=125 6 4 149 7 9 102 10 8 75 14 98 33
split_gain=977.32 804.463 617.888 608.08 584.221 599.054 462.295 441.15 437.645 270.574 237.003 234.603 124.737
threshold=-1.0000000180025095e-35 0.77917789385857394 -1.4819426353541341 -0.84460027941163529 0.8312622289761975 0.39535265251856894 0.82254531566639411 0.97844708048180729 0.5799398343784119 1.4692297621795867 1.2419814253676797 0.31095145936545321 2.3334891676057286
decision_type=2 2 2 2 2 2 2 2 2 2 2 2 2
left_child=3 2 7 12 5 -3 -4 -2 -6 10 -5 -11 -1
right_child=1 4 6 9 8 -7 -8 -9 -10 11 -12 -13 -14
leaf_value=0.0032136231582324394 -0.0080493979082543847 0.015988982274178859 0.0017022242431602394 -0.0039158454201817273 -0.0056575984299896478 0.0038823815935624274 -0.0012052738725319067 0.0013176181272519525 0.0015053968939848928 -0.05045808069397905 0.00024539048929177551 -0.0089519242584117763 0.034845930696220766
leaf_weight=137742 172772 44164 920904 722588 91252 548252 1346410 70916 1306986 1392 168854 62734 1258
leaf_count=137742 172772 44164 920904 722588 91252 548252 1346410 70916 1306986 1392 168854 62734 1258
internal_value=0 0.000651638 -0.000538621 -0.00268001 0.00215302 0.00478492 -2.43494e-05 -0.00532349 0.00103792 -0.00357896 -0.00312764 -0.00985291 0.00349991
internal_weight=0 4.50166e+06 2.511e+06 1.09457e+06 1.99065e+06 592416 2.26731e+06 243688 1.39824e+06 955568 891442 64126 139000
internal_count=5596224 4501656 2511002 1094568 1990654 592416 2267314 243688 1398238 955568 891442 64126 139000
is_linear=0
shrinkage=0.1


Tree=27
num_leaves=14
num_cat=0
split_feature=125 0 182 24 1 149 34 50 90 105 69 27 33
split_gain=848.286 680.475 763.238 650.921 563.742 454.963 357.978 530.805 367.402 270.848 253.803 243.744 112.506
threshold=1.0000000180025095e-35 -1.3853918565213617 0.83076910672992021 1.0000000180025095e-35 1.0314743516608182 0.77094397536034498 0.99013315240249122 -2.4300602522095978 0.39535265251856894 0.30600982008563044 1.4692297621795867 1.0000000180025095e-35 -2.3388943249735372
decision_type=2 2 2 2 2 2 2 2 2 2 2 2 2
left_child=1 6 4 -4 -3 9 7 -1 -8 11 -11 -2 -7
right_child=5 2 3 -5 -6 12 8 -9 -10 10 -12 -13 -14
leaf_value=-0.10127067483922161 -0.037868377533067772 -0.0015335066292092993 0.024623114240828248 0.0022542606077790342 0.0016873700480081967 -0.032258042792705763 0.012599812891223023 -0.015253709728887763 -0.004357859773994068 0.0026101300167541822 0.0091804101824882588 0.018637908181359804 -0.0025656372486047227
leaf_weight=756 802 2615292 13238 751728 685944 1288 13190 14054 407454 875492 63026 15852 138108
leaf_count=756 802 2615292 13238 751728 685944 1288 13190 14054 407454 875492 63026 15852 138108
internal_value=0 -0.000607098 -0.000204755 0.00264136 -0.00086426 0.00249683 -0.00436412 -0.0196446 -0.00382612 0.00327567 0.00305136 0.0159168 -0.00283999
internal_weight=0 4.50166e+06 4.0662e+06 764966 3.30124e+06 1.09457e+06 435454 14810 420644 955172 938518 16654 139396
internal_count=5596224 4501656 4066202 764966 3301236 1094568 435454 14810 420644 955172 938518 16654 139396
is_linear=0
shrinkage=0.1


Tree=28
num_leaves=14
num_cat=0
split_feature=15 16 8 29 13 19 111 75 26 101 21 51 33
split_gain=831.371 677.639 609.087 2024.71 582.86 459.264 289.223 275.337 273.607 158.744 292.683 127.136 107.424
threshold=-1.0000000180025095e-35 -0.3830206449231161 0.32673888200007301 1.0000000180025095e-35 0.97710516485793286 -0.84384848897028519 0.30600982008563038 1.9370149686529454 1.0000000180025095e-35 0.30600982008563044 1.9929105499297768 -0.20822062141477235 2.3177608950609767
decision_type=2 2 2 2 2 2 2 2 2 2 2 2 2
left_child=5 9 3 -3 -4 12 8 -8 -7 10 -2 -11 -1
right_child=1 2 4 -5 -6 6 7 -9 -10 11 -12 -13 -14
leaf_value=0.0026299516046743138 0.0045919291206465681 -0.051424033397981753 0.0025319646560188007 -0.0019770582410155342 -9.2827654994896101e-05 0.039978535091300074 -0.0028147591572283987 -0.017258960086633905 -0.019185817532978485 -0.00081806252833830522 0.065299605980004088 -0.0034830405568126092 0.031644347190595903
leaf_weight=137718 14554 8598 2105020 224612 1414492 822 925434 13388 15920 310136 840 423402 1288
leaf_count=137718 14554 8598 2105020 224612 1414492 822 925434 13388 15920 310136 840 423402 1288
internal_value=0 0.000601015 0.00114912 -0.00380007 0.00147706 -0.0024718 -0.00325307 -0.00302074 -0.016281 -0.00214539 0.00790455 -0.0023563 0.00289879
internal_weight=0 4.50165e+06 3.75272e+06 233210 3.51951e+06 1.09457e+06 955564 938822 16742 748932 15394 733538 139006
internal_count=5596224 4501654 3752722 233210 3519512 1094570 955564 938822 16742 748932 15394 733538 139006
is_linear=0
shrinkage=0.1


Tree=29
num_leaves=14
num_cat=0
split_feature=126 7 28 122 25 108 22 5 150 105 27 69 180
split_gain=803.188 629.529 2141.63 1612.02 990.243 693.275 661.897 586.702 391.887 269.57 283.96 230.342 94.0688
threshold=1.0000000180025095e-35 0.32673888200007312 1.0000000180025095e-35 1.0000000180025095e-35 1.0000000180025095e-35 0.30600982008563038 1.0000000180025095e-35 0.77917789385857394 0.7740778775530065 0.30600982008563044 1.0000000180025095e-35 1.9370149686529452 -2.1758781708156456
decision_type=2 2 2 2 2 2 2 2 2 2 2 2 2
left_child=1 2 3 -1 -4 6 -3 -7 9 10 -2 -11 -10
right_child=8 5 4 -5 -6 7 -8 -9 12 11 -12 -13 -14
leaf_value=0.1325668222111516 -0.043724037983209174 0.021005205630765435 -0.026762624723537382 0.029958119992921695 0.0036290844273670071 0.00039332853224173888 -0.011898522685001724 -0.0019979538627351908 -0.025616021243149378 0.002741018158548692 0.018608296562443959 0.016032918323037278 -0.0022314360864045899
leaf_weight=1918 766 6590 11186 7590 257848 2235632 84578 1896314 1742 925262 15928 13224 137646
leaf_count=1918 766 6590 11186 7590 257848 2235632 84578 1896314 1742 925262 15928 13224 137646
internal_value=0 -0.00059074 0.00401387 0.0506568 0.00236545 -0.000894444 -0.00952011 -0.000704126 0.00242955 0.00315237 0.0157482 0.00292831 -0.00252368
internal_weight=0 4.50166e+06 278542 9508 269034 4.22311e+06 91168 4.13195e+06 1.09457e+06 955180 16694 938486 139388
internal_count=5596224 4501656 278542 9508 269034 4223114 91168 4131946 1094568 955180 16694 938486 139388
is_linear=0
shrinkage=0.1


Tree=30
num_leaves=14
num_cat=0
split_feature=127 6 22 118 12 183 10 7 75 5 111 116 109
split_gain=772.302 650.45 698.01 1642.12 850.522 597.289 578.78 419.914 275.508 274.769 244.505 191.872 134.69
threshold=-1.0000000180025095e-35 0.36199301300068693 1.0000000180025095e-35 0.37941644695586912 0.30600982008563049 1.0000000180025095e-35 1.1173595821654405 0.74096186698392041 1.9370149686529454 1.0000000180025095e-35 0.30600982008563038 0.29827818708308002 1.6553937867873325
decision_type=2 2 2 2 2 2 2 2 2 2 2 2 2
left_child=8 2 3 -2 -4 6 -3 -7 9 -1 -11 12 -10
right_child=1 5 4 -5 -6 7 -8 -9 11 10 -12 -13 -14
leaf_value=0.001055007262554333 0.065117783360490816 -0.0010490714797842448 -0.014597363538279635 -0.0014275158207135673 -0.0011658571830447104 0.0061817401544940007 0.0027597704592599998 0.0019594712785936459 -0.063014040683477143 -0.015483371357870446 -0.0027545864361805377 -0.013820373265991582 -0.26927260721431062
leaf_weight=209456 5260 1299152 49222 12570 1117308 296486 575774 1145886 460 15362 854956 14298 34
leaf_count=209456 5260 1299152 49222 12570 1117308 296486 575774 1145886 460 15362 854956 14298 34
internal_value=0 0.00057927 -0.00143247 0.0182039 -0.0017326 0.00129751 0.000120592 0.00282738 -0.00238238 -0.00219669 -0.00297926 -0.0159374 -0.07721
internal_weight=0 4.50166e+06 1.18436e+06 17830 1.16653e+06 3.3173e+06 1.87493e+06 1.44237e+06 1.09457e+06 1.07977e+06 870318 14792 494
internal_count=5596224 4501658 1184360 17830 1166530 3317298 1874926 1442372 1094566 1079774 870318 14792 494
is_linear=0
shrinkage=0.1


Tree=31
num_leaves=14
num_cat=0
split_feature=126 30 182 106 8 150 34 50 97 112 27 75 180
split_gain=739.331 600.179 744.248 512.149 500.096 360.417 339.395 499.351 379.675 255.16 325.926 217.493 92.6056
threshold=-1.0000000180025095e-35 -1.3628955248076793 -0.87131742862501149 0.30600982008563032 0.5799398343784119 -0.78575100183745861 -0.98023182087846605 2.4305440188290048 0.39535265251856883 0.30600982008563038 1.0000000180025095e-35 1.870988628539864 1.2456964228798102
decision_type=2 2 2 2 2 2 2 2 2 2 2 2 2
left_child=5 6 4 -4 -3 12 8 -8 -2 10 -7 -11 -1
right_child=1 2 3 -5 -6 9 7 -9 -10 11 -12 -13 -14
leaf_value=0.0018891160212558334 -0.013020882337469073 -0.0089068694582470284 0.0087801460360221149 0.00063749192481567024 -0.00158948989287507 -0.10079540313449065 0.014611436884676433 0.097288507263043111 0.0040938072524831764 -0.0026022020451509039 -0.012989245438263311 -0.014184120326107615 0.014937228640541228
leaf_weight=133676 13384 109276 79136 3230860 642832 434 14250 770 411148 921996 16288 16504 5670
leaf_count=133676 13384 109276 79136 3230860 642832 434 14250 770 411148 921996 16288 16504 5670
internal_value=0 0.00056677 0.000186945 0.000832168 -0.00265265 -0.00233097 0.00407691 0.0188499 0.00355424 -0.00302404 -0.0152682 -0.00280588 0.00242004
internal_weight=0 4.50166e+06 4.0621e+06 3.31e+06 752108 1.09457e+06 439552 15020 424532 955222 16722 938500 139346
internal_count=5596224 4501656 4062104 3309996 752108 1094568 439552 15020 424532 955222 16722 938500 139346
is_linear=0
shrinkage=0.1


Tree=32
num_leaves=14
num_cat=0
split_feature=15 16 60 28 75 19 69 9 59 51 2 3 34
split_gain=729.922 609.866 526.632 730.132 486.419 459.175 239.799 218.98 207.391 141.144 177.557 153.645 115.029
threshold=1.0000000180025095e-35 0.37973248824070915 2.3954762905876028 1.0000000180025095e-35 1.9370149686529454 0.79916104183265302 1.4692297621795867 1.0455764048231939 -1.1485509482541982 0.20649278358996279 -0.47817007124268024 0.59137446161100116 -1.2279482357497722
decision_type=2 2 2 2 2 2 2 2 2 2 2 2 2
left_child=1 2 4 -4 -1 6 8 -8 -2 10 -3 -11 -7
right_child=5 9 3 -5 -6 12 7 -9 -10 11 -12 -13 -14
leaf_value=-0.0010375065332368582 -0.0012098680245999742 0.00092779109584708469 0.099075124379290766 0.010586554317949 -0.010807596187129993 -0.016956597666678626 0.015509516798186077 0.0037810985268505615 0.0032713778173687545 -0.0019198197239484441 0.0049967912390405725 0.0025008152629713361 -0.0024555267453270566
leaf_weight=3678054 119232 191550 978 20022 51674 5704 28622 35870 771648 148004 243654 167718 133494
leaf_count=3678054 119232 191550 978 20022 51674 5704 28622 35870 771648 148004 243654 167718 133494
internal_value=0 -0.000563153 -0.00108395 0.0147076 -0.00117287 0.00231609 0.00309789 0.00898625 0.00267162 0.00203815 0.00320587 0.000428512 -0.00304975
internal_weight=0 4.50165e+06 3.75073e+06 21000 3.72973e+06 1.09457e+06 955372 64492 890880 750926 435204 315722 139198
internal_count=5596224 4501654 3750728 21000 3729728 1094570 955372 64492 890880 750926 435204 315722 139198
is_linear=0
shrinkage=0.1


Tree=33
num_leaves=14
num_cat=0
split_feature=127 46 1 1 76 64 70 9 6 69 106 27 4
split_gain=701.922 527.836 725.318 615.023 508.334 414.946 403.54 359.044 269.063 181.244 155.378 677.02 151.505
threshold=1.0000000180025095e-35 -0.47293488675274248 -0.88783932918092157 0.69170559737242987 1.4537683500348366 2.3954764813555003 1.7458738528004749 0.39535265251856894 0.64490004430371428 1.3529232449877286 0.30600982008563032 1.0000000180025095e-35 -1.5656215292462428
decision_type=2 2 2 2 2 2 2 2 2 2 2 2 2
left_child=1 2 7 4 -3 -5 -4 -1 10 -10 11 -2 -12
right_child=8 3 6 5 -6 -7 -8 -9 9 -11 12 -13 -14
leaf_value=0.010617491897570497 -0.068215131965583861 -0.0019467818837835037 0.0024141060802674781 0.00041437912481432433 -0.0089321226775868276 0.016035197550010639 0.01487054623035489 -0.0022438656282813495 0.003083795787643423 0.0086278860459300076 -0.0055112772234893088 0.017566335899507336 0.00079812691699382215
leaf_weight=22580 994 1885558 866778 1011788 110270 17296 26812 560576 532568 66308 41656 12368 440672
leaf_count=22580 994 1885558 866778 1011788 110270 17296 26812 560576 532568 66308 41656 12368 440672
internal_value=0 -0.000552245 0.000997524 -0.00130883 -0.00233272 0.000676921 0.00278786 -0.00174587 0.00227124 0.00369764 0.000547901 0.011185 0.000253219
internal_weight=0 4.50166e+06 1.47675e+06 3.02491e+06 1.99583e+06 1.02908e+06 893590 583156 1.09457e+06 598876 495690 13362 482328
internal_count=5596224 4501658 1476746 3024912 1995828 1029084 893590 583156 1094566 598876 495690 13362 482328
is_linear=0
shrinkage=0.1


Tree=34
num_leaves=14
num_cat=0
split_feature=125 131 4 29 69 149 8 75 11 23 82 51 179
split_gain=660.948 559.043 526.892 843.684 498.843 438.983 227.896 316.526 176.758 284.227 141.46 110.593 103.222
threshold=-1.0000000180025095e-35 -0.38302149127846369 -2.3954761808317975 0.067058144817596269 1.9370149686529452 -0.84460027941163529 1.0677007489839936 1.4058851866822706 0.30600982008563044 1.9843032990343501 1.3779421510234375 -0.1593358498367963 1.2461998925810345
decision_type=2 2 2 2 2 2 2 2 2 2 2 2 2
left_child=5 8 3 -3 -4 12 7 -7 9 -2 -8 -10 -1
right_child=1 2 4 -5 -6 6 10 -9 11 -11 -12 -13 -14
leaf_value=0.0024872789579850883 0.0053932224377689778 -0.1051001730393973 0.00098611864856579766 -0.010280639570604957 0.01088281202653154 -0.0036941512697922091 -0.0019252892243075131 -0.013796411526915565 -0.00081120719584971675 0.066349314723080643 0.0034769579504306683 -0.0032829639299128675 0.016317586952948222
leaf_weight=133376 15018 984 3679848 20246 51646 513200 353176 33010 325842 806 56182 407266 5624
leaf_count=133376 15018 984 3679848 20246 51646 513200 353176 33010 325842 806 56182 407266 5624
internal_value=0 0.000535885 0.00103372 -0.0146755 0.00112309 -0.00220395 -0.00296774 -0.00430468 -0.00195865 0.00849804 -0.00118386 -0.00218435 0.00304686
internal_weight=0 4.50166e+06 3.75272e+06 21230 3.73149e+06 1.09457e+06 955568 546210 748932 15824 409358 733108 139000
internal_count=5596224 4501656 3752724 21230 3731494 1094568 955568 546210 748932 15824 409358 733108 139000
is_linear=0
shrinkage=0.1


Tree=35
num_leaves=14
num_cat=0
split_feature=182 7 29 8 106 8 28 111 27 0 6 10 9
split_gain=586.213 780.916 692.123 1091.47 707.148 675.079 717.097 1101.23 747.16 451.102 417.218 331.861 307.618
threshold=0.085423277316182919 0.74096186698392041 1.0000000180025095e-35 1.0000000180025095e-35 0.30600982008563032 0.74096186698392041 1.0000000180025095e-35 0.30600982008563038 1.986979380988579 0.18564311961354826 0.64490004430371428 1.0000000180025095e-35 1.1173595821654405
decision_type=2 2 2 2 2 2 2 2 2 2 2 2 2
left_child=5 2 3 -2 -4 6 7 -1 -8 -7 12 -11 -3
right_child=1 10 4 -5 -6 9 8 -9 -10 11 -12 -13 -14
leaf_value=0.059631098099362505 -0.079513345730261156 -6.9294961910998344e-06 0.018305676802584134 -0.0015734147048893311 0.0040200531493641131 -0.0017973841991824767 -0.0036569408203135888 -0.0043012132168203394 -0.030500790150094284 -0.020794845581825955 0.0017598938897757791 0.0011168743110504594 -0.0037208422717573972
leaf_weight=4510 2470 734334 37378 6592 474894 960002 676836 6692 10530 6946 943160 1411580 320300
leaf_count=4510 2470 734334 37378 6592 474894 960002 676836 6692 10530 6946 943160 1411580 320300
internal_value=0 0.00113116 0.00457779 -0.0228172 0.00506241 -0.00092605 -0.00365916 0.0214384 -0.00406817 -0.000123344 0.000231749 0.00100958 -0.00113487
internal_weight=0 2.51913e+06 521334 9062 512272 3.0771e+06 698568 11202 687366 2.37853e+06 1.99779e+06 1.41853e+06 1.05463e+06
internal_count=5596224 2519128 521334 9062 512272 3077096 698568 11202 687366 2378528 1997794 1418526 1054634
is_linear=0
shrinkage=0.1


Tree=36
num_leaves=14
num_cat=0
split_feature=46 1 1 70 76 184 93 9 23 10 58 11 10
split_gain=573.268 739.04 692.594 577.534 498.775 488.842 452.487 425.384 661.324 397.987 643.323 549.445 386.764
threshold=0.4754202365702222 -0.70707069932590871 0.97403914772154143 1.4537683500348371 1.7458738528004749 1.190134331414163 0.31095145936545326 1.0000000180025095e-35 0.57125613092135719 0.39535265251856883 2.442649574170737 0.65764901048072777 0.75995879436524916
decision_type=2 2 2 2 2 2 2 2 2 2 2 2 2
left_child=1 7 4 -3 12 -6 -5 8 -1 10 -4 -11 -2
right_child=2 3 9 6 5 -7 -8 -9 -10 11 -12 -13 -14
leaf_value=-0.013996826468706286 -0.0062130000902613051 0.0013331389235365408 -0.015383834372756791 0.044120046321142581 -0.013187519727881953 -0.18021739009259777 0.0071023190756343228 -0.0014927914971756679 0.02907110022944321 0.0077327377605518714 0.048797917112727032 0.00021553908085342641 -0.0015977594691384631
leaf_weight=5322 226854 2372712 23680 3386 39472 176 133216 1230868 10802 119666 1672 518666 909732
leaf_count=5322 226854 2372712 23680 3386 39472 176 133216 1230868 10802 119666 1672 518666 909732
internal_value=0 0.000708354 -0.00144615 0.00169715 -0.00290353 -0.013929 0.00801989 -0.0012814 0.0148558 0.00113675 -0.011151 0.00162476 -0.00251893
internal_weight=0 3.75631e+06 1.83992e+06 2.50931e+06 1.17623e+06 39648 136602 1.24699e+06 16124 663684 25352 638332 1.13659e+06
internal_count=5596224 3756306 1839918 2509314 1176234 39648 136602 1246992 16124 663684 25352 638332 1136586
is_linear=0
shrinkage=0.1


Tree=37
num_leaves=14
num_cat=0
split_feature=15 16 14 75 9 19 113 68 173 0 33 107 31
split_gain=564.904 474.057 468.657 472.5 395.064 333.013 213.242 238.4 123.89 108.305 93.7921 90.8266 89.4762
threshold=1.0000000180025095e-35 0.35886626188609849 0.97710516485793308 1.4692297621795867 0.49284640263876156 0.79916104183265302 1.2419814253676795 1.5649251273372122 -2.341180471930564 -1.6209676185803537 -2.3388943249735372 1.0000000180025095e-35 -1.9708471022563525
decision_type=2 2 2 2 2 2 2 2 2 2 2 2 2
left_child=1 2 3 -1 -4 6 7 -2 12 -10 11 -7 -3
right_child=5 8 4 -5 -6 10 -8 -9 9 -11 -12 -13 -14
leaf_value=-0.0015343425706140651 0.0031074781733838562 -0.0056557723178898428 0.0077468605356723818 -0.0082210468101773636 6.2072727730183187e-05 -0.1310866661015011 -0.00030474264072753547 0.012653028012582888 -0.0043752342422020965 0.0020957972655235176 -0.0022951559348365455 -0.023083348448721255 -0.038650438158181616
leaf_weight=2152634 739212 2536 70240 111132 1405354 84 189036 27124 26812 731730 138048 1066 1216
leaf_count=2152634 739212 2536 70240 111132 1405354 84 189036 27124 26812 731730 138048 1066 1216
internal_value=0 -0.000495422 -0.000958754 -0.0018626 0.000427878 0.00203753 0.00270332 0.00344534 0.00177741 0.00186707 -0.00253208 -0.0309723 -0.0163491
internal_weight=0 4.50165e+06 3.73936e+06 2.26377e+06 1.47559e+06 1.09457e+06 955372 766336 762294 758542 139198 1150 3752
internal_count=5596224 4501654 3739360 2263766 1475594 1094570 955372 766336 762294 758542 139198 1150 3752
is_linear=0
shrinkage=0.1


Tree=38
num_leaves=14
num_cat=0
split_feature=127 0 75 99 34 14 32 99 151 69 113 122 175
split_gain=536.214 439.092 565.225 665.925 538.943 451.587 403.456 376.103 221.773 198.826 191.315 175.527 85.6809
threshold=1.0000000180025095e-35 1.6383291792191335 1.5649251273372122 0.31095145936545326 -1.0649432128064695 1.7986920602217931 -1.6435789343816505 0.39535265251856894 0.79015935762632339 1.9370149686529452 1.2508767374208036 0.29827818708308002 -2.3388949302368722
decision_type=2 2 2 2 2 2 2 2 2 2 2 2 2
left_child=1 2 5 -4 7 -1 -6 -3 9 10 -2 -11 -10
right_child=8 4 3 -5 6 -7 -8 -9 12 11 -12 -13 -14
leaf_value=-0.0006620147830678335 0.0030447866008651812 -0.021063194794459908 -0.04680503030826471 -0.0056927484982983983 0.11105155604468152 0.0054037276458554816 0.023720731521639466 0.0039739327040457309 -0.028877669155278504 0.075749637628905478 -0.00059534043022116357 0.012487767861057701 -0.0015158073368852372
leaf_weight=4039988 763862 6210 4054 139948 572 126582 7038 177266 1154 454 178034 12922 138140
leaf_count=4039988 763862 6210 4054 139948 572 126582 7038 177266 1154 454 178034 12922 138140
internal_value=0 -0.000482677 -0.000690617 -0.00685016 0.0042081 -0.000477735 0.0302849 0.00312652 0.00198512 0.00252867 0.00235674 0.014635 -0.00174249
internal_weight=0 4.50166e+06 4.31057e+06 144002 191086 4.16657e+06 7610 183476 1.09457e+06 955272 941896 13376 139294
internal_count=5596224 4501658 4310572 144002 191086 4166570 7610 183476 1094566 955272 941896 13376 139294
is_linear=0
shrinkage=0.1


Tree=39
num_leaves=14
num_cat=0
split_feature=52 2 3 112 22 64 29 106 175 74 176 82 113
split_gain=536.349 860.57 779.913 636.567 1048.68 485.363 909.174 598.588 404.068 369.667 357.552 350.304 349.277
threshold=-0.23918437162306372 -0.55103546408161475 0.045736319474866331 1.0000000180025095e-35 1.0000000180025095e-35 -2.3954396010557635 0.11141295129301375 0.30600982008563032 2.4193660153257008 1.9419129098325993 -2.3388950446191275 1.7538941381032913 0.37941644695586912
decision_type=2 2 2 2 2 2 2 2 2 2 2 2 2
left_child=1 5 10 4 -4 6 -1 -7 12 -5 -2 -12 -3
right_child=2 8 3 9 -6 7 -8 -9 -10 -11 11 -13 -14
leaf_value=-0.11596505007634564 -0.023005224973078872 0.013802590534111229 0.059377342624225983 0.00060316627577567609 -0.02584013839791981 0.0152089179329166 -0.010900193311763203 -0.00059455295235769264 0.03658211524076458 -0.0076071497634148874 -0.0027285186445438012 -0.026812749942144904 0.0029117029226296809
leaf_weight=854 8890 30364 1582 2180406 16562 24450 23160 1214544 3648 56254 1054168 6074 975268
leaf_count=854 8890 30364 1582 2180406 16562 24450 23160 1214544 3648 56254 1054168 6074 975268
internal_value=0 0.00118405 -0.000809435 0.000245336 -0.0184099 -0.000555606 -0.0146366 -0.000282691 0.00336105 0.000396669 -0.00303395 -0.00286649 0.00324054
internal_weight=0 2.27229e+06 3.32394e+06 2.2548e+06 18144 1.26301e+06 24014 1.23899e+06 1.00928e+06 2.23666e+06 1.06913e+06 1.06024e+06 1.00563e+06
internal_count=5596224 2272288 3323936 2254804 18144 1263008 24014 1238994 1009280 2236660 1069132 1060242 1005632
is_linear=0
shrinkage=0.1


Tree=40
num_leaves=14
num_cat=0
split_feature=126 13 29 111 111 24 9 112 150 14 74 173 2
split_gain=529.477 394.782 1448.57 879.825 430.049 393.123 1441.42 703.876 270.855 206.7 217.976 81.5883 81.0084
threshold=-1.0000000180025095e-35 1.7986920602217931 1.0000000180025095e-35 0.48501408968815179 0.87451141153416034 1.0000000180025095e-35 1.0000000180025095e-35 0.30600982008563038 -0.78575100183745861 1.2419814253676797 1.5649251273372122 2.3347918247868078 2.1276719200856076
decision_type=2 2 2 2 2 2 2 2 2 2 2 2 2
left_child=8 5 3 -3 -4 6 -2 -7 11 10 -10 -1 -11
right_child=1 2 4 -5 -6 7 -8 -9 9 12 -12 -13 -14
leaf_value=0.0019130281590796978 0.054020271394237124 -0.1991632523639067 -0.0097968690017014564 -0.0093033496551949701 0.0010165417097712009 -0.0076477853280037481 0.002794743581369814 0.00075410097650300016 -0.0029886036420701499 -2.3687020461686103e-05 -0.012173385299930745 0.027276749336451758 0.011332437029685003
leaf_weight=138066 6362 612 65762 406 83448 102134 40220 4202712 736634 185308 26778 1280 6502
leaf_count=138066 6362 612 65762 406 83448 102134 40220 4202712 736634 185308 26778 1280 6502
internal_value=0 0.000479635 -0.00456039 -0.123443 -0.0037493 0.000653636 0.00979094 0.000554763 -0.00197261 -0.00257342 -0.00331078 0.00214601 0.000361264
internal_weight=0 4.50166e+06 150228 1018 149210 4.35143e+06 46582 4.30485e+06 1.09457e+06 955222 763412 139346 191810
internal_count=5596224 4501656 150228 1018 149210 4351428 46582 4304846 1094568 955222 763412 139346 191810
is_linear=0
shrinkage=0.1


Tree=41
num_leaves=14
num_cat=0
split_feature=125 131 7 28 14 149 13 68 8 51 179 34 27
split_gain=509.801 483.563 445.979 1490.96 400.163 306.765 207.147 218.334 135.132 125.076 105.665 95.0645 128.484
threshold=1.0000000180025095e-35 0.37652842555630778 0.32673888200007312 1.0000000180025095e-35 0.97710516485793308 0.77094397536034498 1.2419814253676795 1.5649251273372122 0.32673888200007301 0.15204820105923852 -1.2701523512436563 -1.1881597828830341 1.0000000180025095e-35
decision_type=2 2 2 2 2 2 2 2 2 2 2 2 2
left_child=1 2 3 -1 -4 6 7 -2 10 -10 -3 12 -7
right_child=5 8 4 -5 -6 11 -8 -9 9 -11 -12 -13 -14
leaf_value=0.044217482945198505 0.00298845185378766 -0.018188946564638091 -0.0020919213488119568 0.0017355836160938187 8.3944418115345631e-05 -0.062883620148097161 -0.00037279537179222291 0.012171298527939576 0.0033426460651780291 0.00068579501054151244 -0.0020312238605204539 -0.0018133631962164371 -0.0098742908810098215
leaf_weight=8576 737578 4626 2100668 225282 1414274 488 190760 26834 393614 322260 32356 131654 7254
leaf_count=8576 737578 4626 2100668 225282 1414274 488 190760 26834 393614 322260 32356 131654 7254
internal_value=0 -0.000470639 -0.000935101 0.00329347 -0.00121644 0.00193561 0.00257515 0.00331081 0.00184212 0.00214663 -0.00405236 -0.00244664 -0.0132156
internal_weight=0 4.50166e+06 3.7488e+06 233858 3.51494e+06 1.09457e+06 955172 764412 752856 715874 36982 139396 7742
internal_count=5596224 4501656 3748800 233858 3514942 1094568 955172 764412 752856 715874 36982 139396 7742
is_linear=0
shrinkage=0.1


Tree=42
num_leaves=14
num_cat=0
split_feature=127 30 181 112 9 97 116 9 151 112 26 75 175
split_gain=487.764 404.515 474.948 425.558 366.183 261.919 410.322 361.774 221.556 168.855 306.542 158.533 79.6841
threshold=-1.0000000180025095e-35 -1.3628955248076793 -0.87131738811617565 0.30600982008563038 0.31095145936545321 1.0000000180025095e-35 1.0000000180025095e-35 0.39535265251856894 -0.84385297975700735 0.30600982008563038 1.9995960783280293 1.9370149686529454 2.3388949302368731
decision_type=2 2 2 2 2 2 2 2 2 2 2 2 2
left_child=8 5 3 -3 -4 6 -2 -7 12 10 -10 -11 -1
right_child=1 2 4 -5 -6 7 -8 -9 9 11 -12 -13 -14
leaf_value=0.0016188180337001366 -0.068616579632657812 -0.014309939463498761 0.0067455575577773487 -0.001693254856554521 0.0004710232947450323 0.016554768684878415 -0.004524354668477319 0.0029992265751816348 -0.010185426881608431 -0.0021038872740143833 -0.095529698466675153 -0.013191421875770645 0.0281201249804027
leaf_weight=137860 1226 27808 95754 692392 3247138 20678 5392 411270 16326 925726 432 13078 1144
leaf_count=137860 1226 27808 95754 692392 3247138 20678 5392 411270 16326 925726 432 13078 1144
internal_value=0 0.000460354 0.000148917 -0.0021804 0.000650751 0.00334566 -0.0163976 0.00364815 -0.00189331 -0.00243595 -0.0123855 -0.00225834 0.00183692
internal_weight=0 4.50166e+06 4.06309e+06 720200 3.34289e+06 438566 6618 431948 1.09457e+06 955562 16758 938804 139004
internal_count=5596224 4501658 4063092 720200 3342892 438566 6618 431948 1094566 955562 16758 938804 139004
is_linear=0
shrinkage=0.1


Tree=43
num_leaves=14
num_cat=0
split_feature=52 3 106 27 2 175 88 111 24 88 68 51 119
split_gain=485.448 700.554 654.603 1210.59 654.329 393.455 379.016 374.939 978.699 398.063 348.68 323.038 317.906
threshold=0.23633826449826331 -0.094549248415317977 1.0000000180025095e-35 0.010949376182806678 0.54525580478041336 -2.4191383671956133 1.7538941381032918 1.0000000180025095e-35 0.0089618461606505301 1.9978949848049068 1.9419129098325993 -0.10599349039080692 0.37941644695586918
decision_type=2 2 2 2 2 2 2 2 2 2 2 2 2
left_child=1 2 3 -1 5 -2 11 8 -6 -9 -4 -3 -7
right_child=4 6 10 -5 7 12 -8 9 -10 -11 -12 -13 -14
leaf_value=-0.056411732974281016 -0.035931066727722692 0.0046322240504981715 -0.00064687985486172508 0.027901789477630081 0.068081273684535412 -0.012996066971889937 0.026791886865829236 0.00091641793816740573 -0.025004224519955744 -0.0083932691967722444 0.0073533414554882498 0.0012145873786849159 -0.0025978294362802483
leaf_weight=1908 3622 473170 2104388 15846 1246 30320 6532 1206512 12080 47746 55926 665628 971300
leaf_count=1908 3622 473170 2104388 15846 1246 30320 6532 1206512 12080 47746 55926 665628 971300
internal_value=0 0.000770221 -0.000282611 0.0188407 -0.00112624 -0.00303156 0.00277239 0.00038475 -0.0163006 0.000562025 -0.000439771 0.00263461 -0.00291259
internal_weight=0 3.3234e+06 2.17807e+06 17754 2.27283e+06 1.00524e+06 1.14533e+06 1.26758e+06 13326 1.25426e+06 2.16031e+06 1.1388e+06 1.00162e+06
internal_count=5596224 3323398 2178068 17754 2272826 1005242 1145330 1267584 13326 1254258 2160314 1138798 1001620
is_linear=0
shrinkage=0.1


Tree=44
num_leaves=14
num_cat=0
split_feature=15 16 60 29 69 19 108 75 173 82 51 31 34
split_gain=476.352 394.481 354.524 494.631 335.952 288.622 179.779 197.273 123.191 107.853 99.0761 92.6208 90.7268
threshold=-1.0000000180025095e-35 -0.3830206449231161 -2.3954762905876019 1.0000000180025095e-35 1.9370149686529452 -0.84384848897028519 0.87451141153416023 1.4692297621795867 2.37722998323046 1.4726935680229607 -0.20822062141477235 1.9812453379602666 1.3069757611710242
decision_type=2 2 2 2 2 2 2 2 2 2 2 2 2
left_child=5 8 3 -3 -4 12 7 -7 10 -8 -2 -10 -1
right_child=1 2 4 -5 -6 6 9 -9 11 -11 -12 -13 -14
leaf_value=0.0018663798550767573 -0.00036968863511370535 -0.081524485087196938 0.00083355601611796802 -0.0086916428013081842 0.0089493679935472772 -0.0035299834216868222 -0.0017543305932201843 -0.012821416379270825 0.041182036040149542 0.0031198519456641775 -0.0027058640221278296 0.0058136178465481086 0.014935464384599939
leaf_weight=133474 312582 978 3680000 20022 51722 381676 499648 24306 1106 49934 433004 2240 5532
leaf_count=133474 312582 978 3680000 20022 51722 381676 499648 24306 1106 49934 433004 2240 5532
internal_value=0 0.000454938 0.000873129 -0.0120836 0.000946042 -0.00187103 -0.00249037 -0.00408626 -0.00164052 -0.00131147 -0.00172644 0.0175044 0.00238649
internal_weight=0 4.50165e+06 3.75272e+06 21000 3.73172e+06 1.09457e+06 955564 405982 748932 549582 745586 3346 139006
internal_count=5596224 4501654 3752722 21000 3731722 1094570 955564 405982 748932 549582 745586 3346 139006
is_linear=0
shrinkage=0.1


Tree=45
num_leaves=14
num_cat=0
split_feature=0 34 69 94 112 111 26 11 32 93 184 124 24
split_gain=485.559 554.98 551.915 726.067 474.472 440.012 2013.31 440.424 408.659 364.634 345.255 301.633 301.481
threshold=-1.638329179219133 1.0667698735489695 1.5649251273372125 0.39535265251856899 0.30600982008563038 0.30600982008563038 1.0000000180025095e-35 0.30600982008563044 1.6626339858909456 0.39535265251856894 -2.4682328068975354 1.0000000180025095e-35 0.54623374544815595
decision_type=2 2 2 2 2 2 2 2 2 2 2 2 2
left_child=1 8 5 4 -4 6 -2 -7 -1 11 -5 -3 -10
right_child=2 9 3 10 -6 7 -8 -9 12 -11 -12 -13 -14
leaf_value=-0.023144444081305858 0.035873610058413323 0.078423539896510422 0.090200884093226352 0.12099599272496707 0.024010884184631168 0.0063706855325913973 -0.0095687769974640048 1.0286826611538574e-05 -0.18404425507943545 -0.0042854406199974377 0.004322182273746744 0.0116206406454264 -0.04500472732129724
leaf_weight=8182 10634 756 1442 254 4350 111316 117234 4951594 280 211332 172118 6380 352
leaf_count=8182 10634 756 1442 254 4350 111316 117234 4951594 280 211332 172118 6380 352
internal_value=0 -0.00452726 0.000191651 0.00566431 0.0404898 3.81241e-06 -0.00578961 0.00015013 -0.0291289 -0.00353472 0.00449411 0.0186979 -0.106605
internal_weight=0 227282 5.36894e+06 178164 5792 5.19078e+06 127868 5.06291e+06 8814 218468 172372 7136 632
internal_count=5596224 227282 5368942 178164 5792 5190778 127868 5062910 8814 218468 172372 7136 632
is_linear=0
shrinkage=0.1


Tree=46
num_leaves=14
num_cat=0
split_feature=126 10 25 118 28 11 23 27 150 13 7 179 2
split_gain=454.457 346.361 1227.27 952.158 626.82 458.106 720.721 343.631 246.928 198.112 181.927 80.6573 75.1175
threshold=1.0000000180025095e-35 0.31095145936545315 1.0000000180025095e-35 1.0000000180025095e-35 1.0000000180025095e-35 0.30600982008563044 1.0000000180025095e-35 1.9488478002785741 0.7740778775530065 1.2419814253676795 1.0677007489839936 -0.93883841251030886 -2.1275245317818636
decision_type=2 2 2 2 2 2 2 2 2 2 2 2 2
left_child=1 2 3 -1 -4 6 -3 -7 9 10 -2 -10 -11
right_child=8 5 4 -5 -6 7 -8 -9 11 12 -12 -13 -14
leaf_value=-0.11156550042181944 0.0044172229720701789 -0.025182958524041676 0.020382085723676304 -0.025118723990861021 -0.0051404326090206832 -0.00019987094819751331 0.0089309770078868072 -0.0038224162539528535 -0.01105371508997369 -0.011036515558830751 0.0012815063117754232 -0.0014577093976006594 -0.00010109301868787464
leaf_weight=1700 448348 6656 10408 5086 127530 3980946 89036 280294 9392 6502 315024 129996 185306
leaf_count=1700 448348 6656 10408 5086 127530 3980946 89036 280294 9392 6502 315024 129996 185306
internal_value=0 -0.000444359 -0.00525716 -0.046775 -0.00321465 -0.000284493 0.00655813 -0.000438153 0.00182753 0.00240129 0.00312319 -0.00210429 -0.000471787
internal_weight=0 4.50166e+06 144724 6786 137938 4.35693e+06 95692 4.26124e+06 1.09457e+06 955180 763372 139388 191808
internal_count=5596224 4501656 144724 6786 137938 4356932 95692 4261240 1094568 955180 763372 139388 191808
is_linear=0
shrinkage=0.1


Tree=47
num_leaves=14
num_cat=0
split_feature=51 2 3 93 99 112 106 12 175 63 123 58 117
split_gain=437.314 711.903 669.039 544.966 534.651 523.161 481.064 402.725 381.532 351.069 323.009 301.128 295.028
threshold=0.12056151900916591 0.45546673743396254 -0.065140470967786065 1.0000000180025095e-35 1.0000000180025095e-35 0.38892110054376022 0.38892110054376011 1.9918236613753872 -2.3411808580700568 2.3954766153245513 0.37941644695586912 -0.25600117443139808 0.97710516485793308
decision_type=2 2 2 2 2 2 2 2 2 2 2 2 2
left_child=2 8 3 5 6 -1 -3 -5 -2 -6 -10 -4 -13
right_child=1 4 11 7 9 -7 -8 -9 10 -11 -12 12 -14
leaf_value=0.037557109401657532 -0.033830839988782974 -0.041837347736310482 0.0062623585915557931 -0.00022741413034334866 0.00035418415060287165 0.0025707913870105948 -0.0031604245652564335 -0.047056383511263844 -0.013590411741125597 0.012455788000297091 -0.0026309368044293729 0.0036653105791912056 -0.00079326399208299887
leaf_weight=7440 4014 5622 229064 2180760 1497878 10044 7514 1838 27668 24362 959756 406510 233754
leaf_count=7440 4014 5622 229064 2180760 1497878 10044 7514 1838 27668 24362 959756 406510 233754
internal_value=0 -0.000974293 0.000802062 -0.000125986 0.000374511 0.0174586 -0.0197135 -0.00026685 -0.0030631 0.000547859 -0.00293803 0.00315075 0.00203753
internal_weight=0 2.52681e+06 3.06941e+06 2.20008e+06 1.53538e+06 17484 13136 2.1826e+06 991438 1.52224e+06 987424 869328 640264
internal_count=5596224 2526814 3069410 2200082 1535376 17484 13136 2182598 991438 1522240 987424 869328 640264
is_linear=0
shrinkage=0.1


Tree=48
num_leaves=14
num_cat=0
split_feature=125 131 8 29 13 149 14 74 174 27 51 34 26
split_gain=431.958 365.768 351.091 1183.95 349.625 312.94 153.5 188.147 126.772 99.4613 88.6268 86.2249 97.9142
threshold=-1.0000000180025095e-35 -0.38302149127846369 0.32673888200007301 1.0000000180025095e-35 0.97710516485793286 -0.84460027941163529 1.2419814253676797 1.5649251273372122 2.375990578953536 1.1923386102505591 -0.37461584010513393 1.1633520511527948 1.0000000180025095e-35
decision_type=2 2 2 2 2 2 2 2 2 2 2 2 2
left_child=5 8 3 -3 -4 11 7 -7 10 -10 -2 -1 -13
right_child=1 2 4 -5 -6 6 -8 -9 9 -11 -12 12 -14
leaf_value=0.0020477501869889622 -0.00019496779288375875 -0.039379171334799734 0.0019032700876633502 -0.0015274421417371582 -0.00012941526206839443 -0.0027605782915136397 0.00011050503527458647 -0.011283429065184272 -0.00063321692809290399 0.03393066633394784 -0.0024766411532284806 0.056564895728800094 0.010016740247686113
leaf_weight=131282 263034 8578 2102800 225368 1415978 737882 190842 26844 1558 1788 482552 482 7236
leaf_count=131282 263034 8578 2102800 225368 1415978 737882 190842 26844 1558 1788 482552 482 7236
internal_value=0 0.00043322 0.000835904 -0.00291534 0.0010853 -0.00178171 -0.0024266 -0.00305975 -0.00158454 0.0178367 -0.00167169 0.00265164 0.0129237
internal_weight=0 4.50166e+06 3.75272e+06 233946 3.51878e+06 1.09457e+06 955568 764726 748932 3346 745586 139000 7718
internal_count=5596224 4501656 3752724 233946 3518778 1094568 955568 764726 748932 3346 745586 139000 7718
is_linear=0
shrinkage=0.1


Tree=49
num_leaves=14
num_cat=0
split_feature=0 74 25 94 34 98 105 27 27 32 84 99 118
split_gain=390.261 495.004 645.629 619.286 457.927 403.006 385.881 2094.58 425.118 358.031 321.099 307.122 263.173
threshold=1.6383291792191335 1.5649251273372122 1.0000000180025095e-35 0.62190291873090631 -1.0649432128064695 0.94719619354069839 0.30600982008563044 1.0000000180025095e-35 1.9501090341361376 -1.6435789343816505 1.8160403036533286 0.39535265251856894 1.0000000180025095e-35
decision_type=2 2 2 2 2 2 2 2 2 2 2 2 2
left_child=1 6 3 -3 11 -4 7 -1 -8 10 -6 12 -2
right_child=4 2 5 -5 9 -7 8 -9 -10 -11 -12 -13 -14
leaf_value=-0.037031926814351399 -0.073035093536970047 -0.15733392026070789 -0.01217812966137753 -0.02534574031318805 0.066576431215637263 -0.0015250932871671439 9.5766955077717438e-05 0.009259460575235216 -0.0037195679043877349 0.020815346401250958 0.2560038559966617 0.003846237917427016 -0.010636164626933843
leaf_weight=10660 756 528 52336 1088 522 110462 4765086 117674 311108 8182 108 211334 6380
leaf_count=10660 756 528 52336 1088 522 110462 4765086 117674 311108 8182 108 211334 6380
internal_value=0 -0.000171818 -0.00557415 -0.0684706 0.00405875 -0.00494981 -1.15517e-06 0.00541429 -0.000138066 0.0264086 0.0990497 0.00315726 -0.0172468
internal_weight=0 5.36894e+06 164414 1616 227282 162798 5.20453e+06 128334 5.07619e+06 8812 630 218470 7136
internal_count=5596224 5368942 164414 1616 227282 162798 5204528 128334 5076194 8812 630 218470 7136
is_linear=0
shrinkage=0.1


Tree=50
num_leaves=14
num_cat=0
split_feature=52 2 3 112 124 81 89 94 82 22 117 24 11
split_gain=393.188 580.93 476.555 375.619 727.693 357.855 384.927 352.723 322.339 319.586 309.502 507.589 298.8
threshold=-0.31786731180610445 -0.55103546408161475 0.095672481891823827 1.0000000180025095e-35 1.998643306184736 1.9978949848049066 0.31095145936545315 0.62190291873090631 1.7728908900991975 0.039075185053451367 0.37941644695586918 0.0156148846009084 1.991823661375387
decision_type=2 2 2 2 2 2 2 2 2 2 2 2 2
left_child=1 5 8 4 -4 6 -1 -7 -2 -10 11 -3 -5
right_child=2 10 3 12 -6 7 -8 -9 9 -11 -12 -13 -14
leaf_value=0.013517284145243154 -0.0020905311639719724 0.063657863277090498 -0.016536428770017809 0.00031188106899671141 0.15459477491972468 -0.020793935589959296 -0.00091995907898638962 0.01054965822219836 -0.16750544639010179 -0.020816956476108924 0.0026813560149956412 0.0097468281922097749 0.041578661117315292
leaf_weight=18768 1252690 1870 17784 2205278 252 3902 1153754 44952 152 6494 862138 26434 1756
leaf_count=18768 1252690 1870 17784 2205278 252 3902 1153754 44952 152 6494 862138 26434 1756
internal_value=0 0.00107669 -0.000652554 0.000227261 -0.0141454 -0.000339473 -0.000688869 0.00804623 -0.00220706 -0.0241719 0.00301916 0.0133086 0.000344714
internal_weight=0 2.11182e+06 3.48441e+06 2.22507e+06 18036 1.22138e+06 1.17252e+06 48854 1.25934e+06 6646 890442 28304 2.20703e+06
internal_count=5596224 2111818 3484406 2225070 18036 1221376 1172522 48854 1259336 6646 890442 28304 2207034
is_linear=0
shrinkage=0.1


Tree=51
num_leaves=14
num_cat=0
split_feature=182 8 10 28 9 69 29 105 117 113 88 56 10
split_gain=381.472 530.232 426.049 521.687 419.749 438.404 529.818 417.375 491.798 387.05 300.783 297.076 283.305
threshold=-0.068088297231007275 0.74096186698392041 1.3594457772001864 1.0000000180025095e-35 1.083260593286129 1.4403954745285528 1.9995109328158904 1.0000000180025095e-35 1.0000000180025095e-35 1.7079237258559858 1.9978949848049068 1.3557789264223132 1.1173595821654405
decision_type=2 2 2 2 2 2 2 2 2 2 2 2 2
left_child=1 2 3 -1 5 9 -7 8 -6 -2 12 -9 -3
right_child=4 10 -4 -5 7 6 -8 11 -10 -11 -12 -13 -14
leaf_value=0.020273401937171601 0.0013656996191666942 -0.00086619679492476887 0.0062069362292363518 -0.0050006091765978731 0.11645457939249529 0.0061025058572012859 0.05822783186911118 -0.00064724353378518525 0.016799416292278178 -0.0094562519586126725 -0.010188085314959315 -0.0090542299160784549 0.0016750791189607747
leaf_weight=8310 1843784 1318264 39734 474558 588 148068 1976 993262 3138 33652 29530 43890 657470
leaf_count=8310 1843784 1318264 39734 474558 588 148068 1976 993262 3138 33652 29530 43890 657470
internal_value=0 -0.00090962 -0.0037466 -0.00456565 0.00074939 0.00158743 0.00678897 -0.000882986 0.032526 0.00117172 -0.00017026 -0.00100301 -2.053e-05
internal_weight=0 2.52787e+06 522602 482868 3.06836e+06 2.02748e+06 150044 1.04088e+06 3726 1.87744e+06 2.00526e+06 1.03715e+06 1.97573e+06
internal_count=5596224 2527866 522602 482868 3068358 2027480 150044 1040878 3726 1877436 2005264 1037152 1975734
is_linear=0
shrinkage=0.1


Tree=52
num_leaves=14
num_cat=0
split_feature=0 51 3 7 8 38 99 28 10 7 7 11 6
split_gain=387.93 460.322 562.514 490.088 462.768 425.996 408.36 350.286 296.85 618.285 450.629 314.713 239.165
threshold=-1.3702900779719818 0.23633818054300645 0.59137446161100116 0.8312622289761975 0.79800231664502552 -0.10285014511214984 1.0000000180025095e-35 0.059258689112128109 0.39535265251856883 1.9393682053232184 1.9489053419315812 0.48501408968815179 1.7642658462900249
decision_type=2 2 2 2 2 2 2 2 2 2 2 2 2
left_child=8 3 4 5 -3 -2 -4 -5 9 11 -11 -1 -10
right_child=1 2 6 7 -6 -7 -8 -9 12 10 -12 -13 -14
leaf_value=0.0084276238281138782 0.0061295009136417113 -0.0064845359674624422 -0.018850427587640436 -0.0045082019264262212 -0.0013779912202138162 0.0012294260034902294 0.00079200456313444707 0.00068260106280979428 -0.001908735780733897 -0.26677318198093469 -0.065446485660016096 -0.016194123569032274 -0.09468544406360753
leaf_weight=6908 313668 236264 10680 138887 713058 408448 1178262 2032441 535730 138 572 20890 278
leaf_count=6908 313668 236264 10680 138887 713058 408448 1178262 2032441 535730 138 572 20890 278
internal_value=0 0.000278875 -0.000833753 0.00110111 -0.00264889 0.00335789 0.000615561 0.000350576 -0.0024857 -0.012429 -0.104578 -0.0100754 -0.00195685
internal_weight=0 5.03171e+06 2.13826e+06 2.89344e+06 949322 722116 1.18894e+06 2.17133e+06 564516 28508 710 27798 536008
internal_count=5596224 5031708 2138264 2893444 949322 722116 1188942 2171328 564516 28508 710 27798 536008
is_linear=0
shrinkage=0.1


Tree=53
num_leaves=14
num_cat=0
split_feature=127 0 46 77 34 63 63 93 151 106 27 69 19
split_gain=371.908 297.357 331.386 411.014 321 306.715 246.648 242.238 164.735 126.367 261.003 132.395 72.4021
threshold=1.0000000180025095e-35 -1.638329179219133 -0.50093322049162337 1.0147933793078889 1.0667698735489695 2.3954766153245513 -2.3954397350227516 0.39535265251856894 0.79015935762632339 0.30600982008563032 1.9995960783280293 1.9370149686529452 0.57377794029945217
decision_type=2 2 2 2 2 2 2 2 2 2 2 2 2
left_child=1 4 3 -3 6 -4 -1 -6 9 10 -2 -11 -10
right_child=8 2 5 -5 7 -7 -8 -9 12 11 -12 -13 -14
leaf_value=-0.10162867652825619 0.008710620974340182 0.0030491910991306144 -0.00091499464336234628 -0.00047063034079521717 0.016404712944328038 0.010928872569112463 -0.020634096851666027 -0.0042646746576873529 -0.0010625893601069337 0.0018270708485901962 0.087642104526072059 0.011960216553504467 -0.012020576108457375
leaf_weight=398 16278 587592 2953714 761948 5874 22028 6796 163308 132978 925488 430 13076 6316
leaf_count=398 16278 587592 2953714 761948 5874 22028 6796 163308 132978 925488 430 13076 6316
internal_value=0 -0.00040198 -0.000237859 0.00106191 -0.00442675 -0.00082732 -0.025115 -0.00354703 0.00165324 0.0021217 0.010742 0.00196825 -0.00155946
internal_weight=0 4.50166e+06 4.32528e+06 1.34954e+06 176376 2.97574e+06 7194 169182 1.09457e+06 955272 16708 938564 139294
internal_count=5596224 4501658 4325282 1349540 176376 2975742 7194 169182 1094566 955272 16708 938564 139294
is_linear=0
shrinkage=0.1


Tree=54
num_leaves=14
num_cat=0
split_feature=15 8 76 123 51 114 7 111 19 102 22 88 34
split_gain=367.529 310.182 548.673 472.969 372.625 358.974 261.246 228.468 207.241 135.926 179.586 106.485 79.1098
threshold=1.0000000180025095e-35 1.0677007489839936 1.0914889964111378 1.79419498172664 -1.7627085293087748 1.0000000180025095e-35 0.5799398343784119 1.0000000180025095e-35 0.79916104183265302 0.87451141153416034 1.9731789896895322 1.4726935680229611 -1.2279482357497722
decision_type=2 2 2 2 2 2 2 2 2 2 2 2 2
left_child=1 2 3 -1 7 -4 -6 -3 9 10 -2 -11 -10
right_child=8 4 5 -5 6 -7 -8 -9 12 11 -12 -13 -14
leaf_value=-0.00072060025305869385 0.0031082085769399727 0.099132386355712601 -0.030772819220859057 0.0082708384685056778 0.0039448027003312269 -0.0042081672034298143 -1.0363994459233764e-05 0.0097282518975642003 -0.013494301946585716 0.0015837254557590546 0.013423690048503906 -0.003259469304267191 -0.0014685831744709833
leaf_weight=2304978 388200 288 5156 60026 187522 379634 1526082 37968 5704 499594 17644 49934 133494
leaf_count=2304978 388200 288 5156 60026 187522 379634 1526082 37968 5704 499594 17644 49934 133494
internal_value=0 -0.000399608 -0.00106216 -0.000492389 0.000640367 -0.00456412 0.000422455 0.0104013 0.00164347 0.0021687 0.00355667 0.00114364 -0.00196137
internal_weight=0 4.50165e+06 2.74979e+06 2.365e+06 1.75186e+06 384790 1.7136e+06 38256 1.09457e+06 955372 405844 549528 139198
internal_count=5596224 4501654 2749794 2365004 1751860 384790 1713604 38256 1094570 955372 405844 549528 139198
is_linear=0
shrinkage=0.1


Tree=55
num_leaves=14
num_cat=0
split_feature=15 30 181 84 7 9 8 19 96 119 8 34 87
split_gain=350.351 293.724 326.963 430.789 318.991 239.544 550.146 204.515 198.087 154.745 155.901 70.5203 67.793
threshold=-1.0000000180025095e-35 -1.3628955248076793 -0.87642775402893991 0.57993983437841201 1.0677007489839936 0.39535265251856894 1.9393682053232186 -0.84384848897028519 0.31095145936545321 1.2508767374208036 1.0677007489839936 1.2461997812196188 1.0000000180025095e-35
decision_type=2 2 2 2 2 2 2 2 2 2 2 2 2
left_child=7 5 3 -3 -4 6 -2 11 -7 10 -9 -1 -13
right_child=1 2 4 -5 -6 8 -8 9 -10 -11 -12 12 -14
leaf_value=0.0015167734466213381 0.010195880582816494 -0.0086746903983491563 0.0012673187778360041 -0.00094499304881939892 -0.0006745651705149983 -0.013422130325954781 0.10705197584335546 -0.0039464812245976017 0.0025807509925064092 0.00051527592080120887 -0.0010741493834581235 0.036967340929202792 0.0079296478497591968
leaf_weight=133382 22690 85356 2080718 464284 1425450 7882 602 449534 414672 180030 326000 972 4652
leaf_count=133382 22690 85356 2080718 464284 1425450 7882 602 449534 414672 180030 326000 972 4652
internal_value=0 0.000390157 0.000122341 -0.00214537 0.000477836 0.00282645 0.0126992 -0.00160461 0.00228225 -0.00212595 -0.00273908 0.00197928 0.0129483
internal_weight=0 4.50165e+06 4.05581e+06 549640 3.50617e+06 445846 23292 1.09457e+06 422554 955564 775534 139006 5624
internal_count=5596224 4501654 4055808 549640 3506168 445846 23292 1094570 422554 955564 775534 139006 5624
is_linear=0
shrinkage=0.1


Tree=56
num_leaves=14
num_cat=0
split_feature=52 100 63 29 3 9 1 33 88 23 110 58 2
split_gain=348.751 474.294 727.533 529.152 418.028 465.984 417.45 388.074 377.788 352.265 293.029 442.316 422.102
threshold=0.3106859668496082 1.0000000180025095e-35 -1.6311721107193755 1.0000000180025095e-35 1.0291660054935565 0.39535265251856894 -1.0396324024252357 2.3408987579895659 1.7379409453546828 1.0148372832093984 0.82254531566639411 -1.4732148203694597 -2.1656931429372173
decision_type=2 2 2 2 2 2 2 2 2 2 2 2 2
left_child=6 2 -2 -4 -3 -6 10 8 -8 -9 12 -12 -1
right_child=1 4 3 -5 5 -7 7 9 -10 -11 11 -13 -14
leaf_value=-0.016402831664445557 0.072530928831450264 -0.0018821515791755572 -0.067583341292095436 -0.014934388045742188 0.0084791007948515958 0.00021131022124768807 0.0010739083916011499 0.0065977616477321532 0.017176906997933873 0.0537119763998056 0.0052978726432708657 -0.0015756778960177933 -0.0026505404201136442
leaf_weight=24058 862 1388314 2186 15064 76426 631032 2640354 3974 14650 2642 126322 361642 308698
leaf_count=24058 862 1388314 2186 15064 76426 631032 2640354 3974 14650 2642 126322 361642 308698
internal_value=0 -0.00101322 -0.0171261 -0.0216063 -0.000873974 0.00110447 0.000615057 0.00122304 0.00116276 0.0254121 -0.00135665 0.000203717 -0.00364482
internal_weight=0 2.11388e+06 18112 17250 2.09577e+06 707458 3.48234e+06 2.66162e+06 2.655e+06 6616 820720 487964 332756
internal_count=5596224 2113884 18112 17250 2095772 707458 3482340 2661620 2655004 6616 820720 487964 332756
is_linear=0
shrinkage=0.1


Tree=57
num_leaves=14
num_cat=0
split_feature=127 117 29 117 111 26 20 102 151 119 74 19 123
split_gain=346.572 264.765 991.334 504.819 427.538 269.437 640.598 396.101 159.419 132.816 163.38 68.185 65.4928
threshold=-1.0000000180025095e-35 1.7986920602217931 1.0000000180025095e-35 1.8410844951344498 0.84985039943923257 1.9488478002785741 1.3183280936361015 0.30600982008563032 -0.84385297975700735 1.2419814253676795 1.6152994962525302 -0.57083750897582797 1.4713085411329565
decision_type=2 2 2 2 2 2 2 2 2 2 2 2 2
left_child=8 5 3 -3 -4 7 -7 -2 11 10 -10 -1 -11
right_child=1 2 4 -5 -6 6 -8 -9 9 12 -12 -13 -14
leaf_value=0.01174840224557371 0.0064541352320681205 -0.24581394650248486 -0.010070237670529204 -0.067420830204868804 0.0010819026069501928 0.034581296592317463 0.0027601334964881576 0.00015985245024544771 -0.0023912481865598252 0.0016951371444199751 -0.010970084063461638 0.0010864304962942531 -0.0021300276187503019
leaf_weight=6282 102570 194 54796 870 92248 6470 284956 3959554 740066 121866 22886 132722 70744
leaf_count=6282 102570 194 54796 870 92248 6470 284956 3959554 740066 121866 22886 132722 70744
internal_value=0 0.000388047 -0.00376988 -0.0999474 -0.00307395 0.0005295 0.0034666 0.000318785 -0.00159593 -0.00205622 -0.00264858 0.00156828 0.000290187
internal_weight=0 4.50166e+06 148108 1064 147044 4.35355e+06 291426 4.06212e+06 1.09457e+06 955562 762952 139004 192610
internal_count=5596224 4501658 148108 1064 147044 4353550 291426 4062124 1094566 955562 762952 139004 192610
is_linear=0
shrinkage=0.1


Tree=58
num_leaves=14
num_cat=0
split_feature=125 131 9 41 10 149 7 69 88 174 51 34 27
split_gain=339.741 324.066 248.653 668.536 322.942 202.628 136.241 240.947 132.78 110.217 79.6416 76.0257 78.2912
threshold=1.0000000180025095e-35 0.37652842555630778 0.49284640263876156 2.0964521289183247 0.31095145936545315 0.77094397536034498 1.0677007489839936 1.0492702473030713 1.377942151023438 -2.341180471930564 0.40280379131940869 -1.1881597828830341 1.0000000180025095e-35
decision_type=2 2 2 2 2 2 2 2 2 2 2 2 2
left_child=1 2 3 -1 -4 6 7 -2 -8 -3 -11 12 -7
right_child=5 9 4 -5 -6 11 8 -9 -10 10 -12 -13 -14
leaf_value=0.0014306520228703937 0.0020462455114066652 -0.015830600176993535 -0.0069650501932113007 0.035602572832657886 -0.00083430875573410872 -0.050383052868066269 0.0014390358599958792 0.0071916674205088687 -0.0037950280467736568 0.0023367763938355979 0.00016330104409602517 -0.0014151445882854303 -0.0090036320403857461
leaf_weight=260094 430506 3648 88152 5854 3394700 488 353082 115404 56180 493008 256200 131654 7254
leaf_count=260094 430506 3648 88152 5854 3394700 488 353082 115404 56180 493008 256200 131654 7254
internal_value=0 -0.000384204 -0.000764429 0.00218284 -0.00098948 0.00158012 0.0020999 0.00313397 0.000720548 0.0015091 0.00159353 -0.00198147 -0.0116119
internal_weight=0 4.50166e+06 3.7488e+06 265948 3.48285e+06 1.09457e+06 955172 545910 409262 752856 749208 139396 7742
internal_count=5596224 4501656 3748800 265948 3482852 1094568 955172 545910 409262 752856 749208 139396 7742
is_linear=0
shrinkage=0.1


Tree=59
num_leaves=14
num_cat=0
split_feature=126 132 7 28 75 150 13 68 51 63 173 9 173
split_gain=320.88 278.334 279.384 962.404 281.148 174.161 131.681 163.31 100.784 109.399 77.7915 68.4683 66.7799
threshold=1.0000000180025095e-35 0.37973332733026299 0.32673888200007312 1.0000000180025095e-35 1.9370149686529454 0.7740778775530065 1.2508767374208036 1.5649251273372122 0.63255741817878797 -2.2702638389424936 -2.341180471930564 0.70798969238299991 -2.3388945444744063
decision_type=2 2 2 2 2 2 2 2 2 2 2 2 2
left_child=1 2 3 -1 -4 6 7 -2 10 -10 -3 -8 -7
right_child=5 8 4 -5 -6 12 11 -9 9 -11 -12 -13 -14
leaf_value=0.035734262872927323 0.0023104798410771917 -0.022612590952469345 -0.00083847573697717448 0.0013805314830260863 -0.0082876341136929009 -0.024448842499883119 0.0064299172669677919 0.010196935250906283 -0.15152330767984193 -0.00053635597478086364 0.0021262573714837048 -0.00094694252138174853 -0.0015551928374718843
leaf_weight=8462 745376 1274 3466276 224574 51418 1286 13594 27216 48 194742 554862 168994 138102
leaf_count=8462 745376 1274 3466276 224574 51418 1286 13594 27216 48 194742 554862 168994 138102
internal_value=0 -0.000373387 -0.000725221 0.00262798 -0.00094736 0.00153564 0.0020175 0.0025883 0.00138395 -0.000573562 0.00206959 -0.000397722 -0.00176641
